2 128
0 4.899286931779137 0.04413616310622293 -2.5494747099239397 -0.7234117334501247 4.253612682814031 -0.945812966780802 -0.5253175319829915 -1.1817323065184298 -0.24686747865944805 -0.5174719271653535 -0.9285442937467238 -1.4625305149116306 1.5425159630376013 -0.07327794725539842 0.5434252339263498 -1.9379910283062272 2.0447708148837482 -1.9056876952714483 0.3926274747784391 1.4394390839616007 0.10774909176190738 -0.02465604314959534 2.5543171557965714 0.371527470523411 -0.025165330472022036 -0.4554233731615053 1.0555646937030227 -0.568703505511413 -1.7195028196364055 2.119013460640977 -0.9984460031204816 -1.200599424093426 -0.7005510034044248 -0.9942123967237235 -1.400767121452569 -0.5475197728941633 -0.9443823896726479 0.188708124686367 0.4046152328020087 -0.04305971846757853 1.1130225458070497 -0.4577865147029535 1.0697412274997045 -0.22812124527671337 0.35624273085146846 1.132238692699892 0.2809496754240267 -2.001447484111926 -0.2724152551597694 -1.549072592770096 0.9621987366526883 0.29550359743692334 -0.17797019427721214 -1.9265949771910287 -1.7153152642980638 -0.34606283564070445 0.17518025613531318 0.5430200573613622 -0.5039011981251333 0.7787638786866904 2.2455019512301067 0.8316048919081982 -0.9029178912625736 -0.46184745569115526 0.49595657558012973 1.8526868516133757 -1.3639958712311762 -0.5651636427378623 -0.9273729587102969 0.4138411438665039 -0.7204485533228987 0.48660530514296874 -0.6910508291484477 0.6518212218575901 1.8575890889363023 2.1136734062555154 -0.4396925921935195 1.296561649770007 -0.7870327485007329 0.31765872084554203 0.5976113682311077 1.8329609738078465 1.5278003252358854 -0.4274102552927371 -0.3870599975286991 -1.2426140519655482 0.26375957665616195 0.7903638621970406 -0.6419147669169006 0.40113737360433893 -1.0478655085924033 1.1715954380767328 -0.140464217715626 0.4262915863381931 -0.9915785487820414 -0.6492194972595022 -0.12653680653644897 2.3899450436679097 -0.07947640612892556 -0.41012413140208426 -1.2382892918746145 -0.36971173342101954 -1.1083789407534743 -1.0326053453205093 -1.5707747375499874 -0.7018107317199176 -0.04377395132822888 1.1876575420028965 0.9673220721985476 -1.0742309573499627 1.0674268081295952 0.31882546832704967 0.03763636501789413 0.44273360643550186 1.0406459696443602 -0.04755061853945364 -0.4894382954721618 0.10090067024202236 0.4987206477730324 0.2556395390331194 -0.13463157873219242 1.0505910907293208 -1.2880598683195124 0.8264458794967368 -1.0321867458289704 1.6108808481285548 1.5868774375822832 -0.1431962909774254
1 1.6789008080808114 -4.435452574177493 -1.2758466506187127 -1.0148397841903847 4.7296713346654595 -1.343849254771521 -1.043471410756302 0.17309073352433568 -0.5725861579294357 0.42257707015758056 -0.006871313841962237 -0.35926436760378094 0.23770782705000196 0.6539546516203195 1.3547005867702833 -0.9239181379735154 1.803670671498425 -0.8036387506700359 0.9104312303529591 0.36582368635870527 -1.7288282537209858 -0.018239573499672587 -0.6827451486354028 -0.0021730337786773266 0.9101909237802749 -1.2622377395747761 1.5151794163642367 0.5009157830492567 -2.249053272612213 1.1338605716529997 0.278004666017824 0.7595506682297184 -0.1325821579816634 -0.83252858309468 1.2563267297741278 1.5387627059388678 -2.1936306569443924 -1.7312197342060223 -0.07147487754449901 0.2067688669477672 1.4775444387315921 0.06512712270803823 -0.3094566136138602 0.37225939356810855 -1.70943967995 -0.7883313971521918 0.9539239202546635 -0.11570790138058051 -0.8837999437179211 1.2365188847346695 -1.0147840123974494 0.8255611754120837 0.34176386969945555 0.6922411223952981 0.22924095882518378 -0.7342548694514311 -0.058237136977773205 0.6556461985626385 0.3529265111692461 -0.4637040945519047 -0.18949207811057525 -2.2369332071498134 -1.7604298565160243 1.8086594442571051 0.9617903223066155 1.1483160936080732 0.5030596217898111 -0.7281390205036153 0.4675797902270957 1.045811079895793 -1.3586307327688967 0.8104882167536113 0.01290613630361119 0.7953563435701767 0.2519154263695473 0.7893942682110069 0.8382835699515159 2.3083968824032923 -2.5754069136463267 0.7241050427036914 -0.26388798935527125 -0.5923476385648638 0.9644809873862983 1.4285299653946435 -1.0928140036992842 -1.060066529303058 -1.031874841865429 -0.11099361944748284 0.5187851238034761 0.8940143455353246 0.7233288757003826 -1.2749751765209156 0.4955327466290572 -0.5936063442538896 0.8314422692314085 0.17400206941223886 0.6539906973913139 -0.21879311748289687 -0.6604338518296445 1.689472390908733 -2.5145781669810443 0.01122218830931373 1.9833954758496002 -0.9530733149584885 -0.400437032253802 0.8746967263181925 -0.5605284159846812 1.0955915645878809 -0.013546395426444325 0.2985262768773683 0.06663972044898317 -0.6521767282098329 -0.305900054211943 1.0109405836719099 -0.15537660834059563 1.1652513733229644 -0.6518931289061737 1.4017264152180309 1.2431051423431878 0.2313740420356066 -2.32923133944853 -0.2283655059351261 0.47905230074491695 -0.16607905198931833 -0.6834580038546909 -1.0646812614115455 -2.900053801676859 0.4748805805628437