244 128
0 -0.55016977 1.1706673 1.5602081 0.6170045 -0.8663285 -1.3413693 0.57041645 -0.34646907 1.5669382 0.9079208 0.8105307 1.0347106 0.5850044 -0.29177633 -0.6215067 -0.13893585 -0.8284107 -1.9362186 0.08571512 -0.23017985 -0.52944523 0.03033191 0.784243 0.28266397 2.3305442 -1.7243259 1.1946452 -1.6208622 1.5433768 -0.23188321 -0.43880972 1.1373396 -0.5503151 1.4734737 -1.1228852 -0.22267953 -0.453368 1.2793885 -0.95986664 -0.39986378 0.8243503 1.9376612 0.37350428 0.10333475 -0.88734716 -0.46399647 1.4047433 0.8137448 0.84693134 -0.058757994 -0.39593694 -1.0188218 -0.22656329 -0.9426213 0.08294607 0.98852366 0.5491851 1.1209618 1.0753536 -1.9123412 1.2532947 0.38681707 -1.0064447 0.0325571 0.6732234 1.1057386 -0.8051977 -0.93848723 2.5943134 0.67552304 0.1887853 0.26119593 -0.20925933 0.6975483 1.2587302 -1.8171495 -0.7510047 -0.5927582 -2.0065682 2.0176978 0.5246385 0.3036334 0.43442014 1.3719018 0.008616604 0.53528005 -1.2316663 0.3783837 -1.2194757 2.0806203 1.3802844 -0.4271044 0.5290389 1.0929188 -0.26385248 0.166831 -0.7237211 -1.1732255 0.33604354 0.42153227 0.47531733 -1.730867 -0.35241538 2.0527437 1.3012117 -1.5253696 0.6644465 0.901756 -0.9696741 0.27792993 0.017158639 0.11872432 0.6674097 -0.2367403 -0.44357163 -1.6554669 -0.32998183 -1.6260786 1.2798245 -0.5241837 -0.9064279 -2.342062 -1.2843039 1.3915132 -1.2399027 0.7235102 -0.016295299 0.78756785
1 -0.29165697 -0.66741806 -1.0479226 0.21034592 -2.7962575 -0.49902216 1.2162887 0.16574532 0.48578873 -1.2449913 0.79993415 1.5705471 2.0274973 -0.09469775 -2.1634016 -0.649266 -0.35288048 0.8708927 -1.2510577 -1.7804575 0.36381206 -0.4050369 0.37966797 -1.3851385 0.37908426 -0.23391482 -0.4251612 1.15662 0.48409888 -0.5486461 0.3062779 -1.8715023 -0.8626502 0.3466573 0.8853799 1.1842268 0.54832155 0.63794446 -0.8709237 -0.17425676 -0.5029892 -0.1057378 -1.647429 -0.7536587 0.31892243 0.61887467 0.032665525 -1.0207963 -2.5012531 -0.95988643 -1.4797791 0.2965667 -0.3695167 -1.1891268 0.21374181 0.88497293 0.4264025 -0.32142353 -0.6067337 -0.54499066 0.66726154 -0.25248313 -0.17995413 -0.7386528 0.54643875 0.24558313 -0.7416264 0.61383843 -1.788067 0.2954513 0.45629025 -0.27759492 -1.1726799 0.19488977 -0.8829873 -0.046193387 -0.4427068 0.9243444 3.1016386 0.21326457 0.4853404 0.021906167 -1.4000262 -0.10015184 0.90698284 -0.56765485 0.5068446 0.5826319 -0.31914997 1.0777065 -0.5079221 1.1398437 -0.9188445 -0.6174783 0.5700131 -0.13193397 -1.1792185 0.45648825 -2.0509233 -0.06278165 0.59423816 0.5300697 -0.86856854 0.608338 0.08207523 -0.67620045 1.0137608 0.79288834 -0.3472297 -0.3940292 1.7223077 -0.5613473 -1.3131716 0.15227483 1.9112135 1.3920954 0.07903497 0.11965042 -1.3520596 -1.1323804 -0.9114781 -0.9691934 -0.3835861 -0.51171 0.30185324 1.9157994 0.0041609067 0.65889686
2 -3.014413 -1.0305262 0.061819516 -0.40840325 -0.053409092 0.15054505 0.67016417 0.5417313 1.0628128 -2.051047 0.38190916 0.39230484 -0.52227205 -0.15406252 1.0743605 1.1560159 1.8588485 0.0041513867 1.2364328 -1.2727115 1.2490909 0.4803752 1.014307 -1.623057 -0.21665174 -0.6913198 -0.7280603 1.3757532 0.91334444 -0.31529057 0.63262355 1.3479937 -1.7578667 -1.6324747 -1.1526031 -0.51918775 0.4086145 -0.8294437 0.7927515 0.08160135 0.45493755 -1.2420443 -0.65690255 1.0828521 -0.024759602 -0.4997805 0.27967727 -2.6909177 -0.08300808 0.6178796 -0.6461873 1.7164305 -1.1611065 1.7633816 -0.45148483 -0.22933699 1.3081353 -1.8008258 -0.034868132 1.1053177 0.9565559 -1.2092917 0.04108347 0.6526206 -1.7312778 -0.03449254 -1.2685539 -0.1414087 -0.7210565 -0.6707664 0.49489042 -0.296446 0.31634703 -0.73446447 -1.0585736 1.5131191 -0.8594649 0.0023503092 -1.1470419 0.24796554 0.26771057 -0.82987076 -1.2822115 1.3627182 -0.55850947 0.96445453 0.31703448 0.094896235 -0.33404484 0.019721141 0.48589426 -1.2415494 -0.32405096 -1.6490593 0.14130045 -0.45451698 0.1791243 -1.3279284 0.028424831 0.729914 0.6325514 -0.08060928 -0.16740872 0.16485451 -2.0070622 -1.6283616 0.76811266 0.72983575 -0.7326423 0.6238686 -0.20964111 -1.499476 -1.3293946 0.23443544 -2.2132866 0.26317134 0.8771187 0.47949907 1.4161733 -0.53547984 -0.7915915 0.06984775 -0.45479107 0.24679816 -2.0984643 0.81157136 0.17456728 -1.5966598
3 -1.1157019 -0.12214417 0.07136566 0.20878704 0.8207782 -2.1605725 1.3492485 0.9231441 -0.59034497 0.89052737 0.111494616 -0.6563976 -0.92576176 -0.11205797 -0.8378244 0.37438786 -1.1393194 -0.5814225 0.17837292 -0.54386705 0.94127816 -0.6167103 -0.6990775 -0.15864648 -1.2243524 -0.40860236 -0.42775914 -0.10920608 0.11542389 -0.62821287 0.53521717 0.44833335 0.7229102 0.014935968 -1.693044 -1.7769268 1.3115592 0.10638569 0.10539824 -0.5285565 1.7329096 0.7092552 0.44154674 -0.52898973 0.28923813 -0.085677475 -0.050021574 -1.5273802 0.74305075 1.1248895 0.82053536 -1.2620714 -0.6121839 0.36868927 1.3099024 0.14482878 0.82542336 1.8633587 -2.088399 -1.0580493 1.1194091 0.071193025 -1.0883937 -0.8977568 0.2588661 0.63058156 -0.6923344 -0.70049167 -0.46527123 -0.11047357 -0.4319794 0.48263884 0.64091486 -0.94697416 1.414412 -0.043474283 -0.9756612 -1.5836085 -0.6428262 1.6642866 1.9061099 -0.020152507 1.6483806 0.7889587 0.025597308 -0.46076632 -1.8572174 -0.7002997 0.64614004 0.19399165 -0.43525398 -0.91450155 0.1972329 0.85990524 0.5348806 -1.9143286 0.8794356 0.9756953 -1.3853347 -1.5326979 -0.7175647 -1.7141743 -0.777553 0.99006367 0.29166633 -2.3011284 -0.21109852 -1.7583959 1.6164248 1.438249 -1.6226205 0.90705454 -0.22010842 0.7806352 -0.2836389 -0.015232058 -0.15402113 -0.36766145 -0.54530996 0.58108485 0.570937 0.11459634 -0.407605 -0.17988439 1.6973327 -1.1338488 -0.4471806 -0.8650293
4 0.69161236 -0.31614906 -0.67215437 -0.65773284 0.050010454 -0.22580111 -0.5619046 0.7021877 -0.19343577 0.34100652 0.59101284 0.3390728 1.2982721 0.27889657 0.16345884 -0.460662 -0.20637614 -1.3262792 -0.07501095 -1.4340684 1.0240192 2.2893984 2.545083 0.7865792 0.7616431 1.3194864 -0.7602874 -0.4348715 0.60918623 -2.0295894 -0.6840177 -0.35212785 -1.9144384 -0.1101515 0.41955578 -0.21816152 0.38306776 -0.7465177 -0.79665595 0.05229496 -1.0317239 -0.5328997 0.7524652 1.0869863 0.29944223 0.47102788 -1.0941935 0.3258083 0.81095034 -0.44278744 -0.18407819 -0.63940185 -0.4252807 -1.0678159 0.123428814 0.5676892 0.920715 -1.4057039 -1.0432688 0.88271457 -0.049423415 1.1947174 -1.1856198 1.3180497 0.3103613 0.66515046 -1.1968322 0.52900213 0.8343439 -0.18404776 1.0970457 -0.6579608 -1.1929427 0.819948 0.648126 -1.1604437 -0.030777568 0.3916796 -0.24195689 0.22613497 -1.1306176 0.78318954 1.0079894 -0.2966471 -1.5331994 1.0045222 -0.25530776 -0.28494328 -0.09414803 0.19807968 0.39054674 -0.86555874 -0.9454327 -0.5028273 -1.4354744 1.1599189 -0.48397493 0.8821666 0.35250828 -0.509622 1.7225313 0.3022916 0.7073898 0.5434198 -0.43696785 -0.7311875 0.49307716 0.8765489 0.10633545 0.22487561 0.09864505 -0.46849278 0.22696854 -0.26431072 0.08967592 -0.112833016 0.64201665 1.78092 -0.96141136 1.0895976 -0.34024653 -0.6184389 0.20072642 -0.051848415 1.3439445 0.4735776 -0.60040146 -0.8135467
5 1.2853553 -0.20986362 0.5620629 -0.69099903 0.107456334 -0.6625088 1.5085965 -0.6123788 0.24690688 0.10197611 1.876944 0.7090011 -1.3567713 -0.6777652 1.3061725 -0.81670433 -0.4777407 0.6388042 1.1027529 -0.9289689 1.1235465 0.03124128 -2.0385728 0.18275708 -1.5609125 -0.793171 0.6538966 -0.4146089 -0.41921848 1.1276032 -0.1944212 -0.4379922 -1.2544934 -0.037555642 0.14356919 -0.92111784 0.27663487 -0.33527264 -0.066132054 -1.9585259 -0.033833925 0.34185916 0.32839075 1.7817785 1.3747058 0.3348759 1.088123 0.91697544 1.6873744 -0.08436541 -1.2688354 -0.9472697 -0.3964132 -1.3654754 -0.93896 -1.1189411 -1.161217 -1.650093 0.30571267 0.99474376 0.24767572 0.14634958 -0.038265027 -0.86315846 -0.4665959 0.1960155 -0.060202856 -1.0818717 1.7728614 1.0890571 -1.2347484 0.099240944 0.24516708 -1.773061 -0.9054121 -0.407817 -0.30054677 -1.2998738 0.24889117 -0.087653786 0.5283089 1.510772 0.21821855 -0.49666098 0.12162433 -0.5036736 -0.20374319 -1.0997233 1.6716251 -1.3096398 2.5099301 0.14592811 -0.15022424 -1.835327 0.35576263 0.9641756 -0.019016251 -0.47090843 -0.7768269 -1.2233651 1.0135739 -0.2088828 -0.17485274 -1.0656984 0.3205527 0.15140404 0.22568822 -1.0711485 0.06502168 -1.2053024 -0.21676977 -1.2352676 0.49099904 -0.21251483 -0.3243405 1.145361 0.59084713 -1.1584924 -2.085283 0.89079356 0.35225832 -0.2227955 -1.0574011 0.27926335 -0.48190248 -0.82130176 -1.540333 -0.23181856
6 -0.6526972 0.068550006 0.30105224 -1.4374037 0.9081013 -0.97033006 -1.1547134 -0.7663803 0.73268694 0.67217535 -0.08100143 0.017270854 -0.122009024 0.50127023 0.9581564 2.0487607 0.08414091 0.57677484 -0.2293374 -0.1638622 0.021556582 -0.07804412 -0.7272573 -0.7483903 1.0113117 -0.73735887 1.7016958 -0.75444335 1.3534641 1.1329907 -0.27956632 0.29960477 -0.30527455 0.46544075 0.7725153 0.44657955 0.46594802 -0.6510029 -1.2867568 -1.2260535 2.1987267 -1.7542324 0.82175404 -1.2469348 -0.6304407 -1.6347789 0.3210168 0.15477598 0.6583085 -1.3810701 -0.05804004 -0.652545 -0.18431804 -0.32383102 1.1089385 -0.69710016 0.7065038 -0.24121678 0.071899705 -0.19167574 -1.7503145 0.603303 0.625563 -0.4927341 0.13454252 0.40985548 0.31711444 -0.8588614 0.79027224 -2.5753477 0.4798582 -0.28441077 1.0113345 1.8657264 -0.58269626 1.6581014 0.89026713 -0.47399342 0.26654485 1.1126262 0.98293203 -0.7497875 0.3695115 -0.87189645 -1.4275311 1.3722159 -1.8135171 -0.17613414 1.1610819 -1.3338492 -0.13684563 0.5561645 0.5550414 -1.194516 -0.42299455 -0.37635612 -0.48779473 0.34335637 -0.3100656 1.2820388 2.1969097 0.32875767 -0.7023803 0.4851068 1.6903198 0.3264186 1.6827536 -1.7970585 0.5174528 0.8049597 -1.5011686 -2.5981812 -1.4753987 1.5544778 2.3193753 1.1834757 -0.18524547 -0.34649515 0.4591754 -1.1536248 -0.46759117 1.0836684 -0.7450796 -0.0040128366 1.896532 -1.740764 0.20065436 -0.21238093
7 -0.24446091 0.29318282 -0.79055446 -0.3327439 0.44777915 0.6218182 0.7852734 -0.70510775 0.003998053 -0.1548868 2.1394928 -0.58386105 0.27332437 0.6045774 -1.6585876 1.663078 -0.07333111 0.9587751 -0.063093334 -0.40924305 0.6631894 -0.7580963 0.015529587 0.94747096 -0.6202128 -0.76434124 0.65546346 -1.6420953 0.18830632 -0.52394015 -1.2754009 2.016878 1.0706203 2.3776028 0.321553 -0.086302556 -1.8342357 0.53954715 0.40299594 -2.0941734 -0.77269596 1.3322945 2.4968333 -1.0867298 -1.4312552 -0.50398576 0.21779989 1.3015594 -2.480816 -0.33045977 -0.77075815 1.3275186 -1.0889014 2.1135285 -0.12907961 -0.08566084 -0.4469564 0.068333715 -2.0186324 0.5353864 -1.4524521 0.35646582 0.45848003 -0.28278202 -2.9939332 1.8728558 0.9060198 -1.1911019 0.41863576 -0.6559476 -0.4971908 -2.10855 -0.09518067 -0.64921767 -0.8730976 0.09171322 1.392515 0.73730665 0.03194707 1.6518146 -2.896684 -1.4077213 1.5155642 1.0736432 -0.03479676 -1.0078601 -1.1700622 -0.70994204 1.091893 1.8331774 0.25560048 -0.47168475 -0.7692708 0.9288436 -1.1059846 0.43513793 -0.043857183 -2.2921987 -0.80328166 -0.40362278 -0.68838185 0.7996797 0.33510056 -0.21062209 -0.25255066 0.05907183 1.1041859 -1.224066 1.1984382 1.0011986 -0.10211566 0.77891576 -0.4659617 0.3671065 -0.32731193 -0.7099855 1.1235232 0.4490088 -0.91299796 0.3817935 -0.7415668 1.3787338 2.3583891 1.1201361 0.7065156 0.12694404 -0.9958575 0.40640223
8 0.36599255 -0.86776745 -1.3152767 -1.0054232 -0.85208 -0.779068 0.3597737 -0.63763684 -1.037799 -0.7681695 0.5211392 -0.33067316 0.42414904 0.5531763 2.1162875 0.9764001 -0.5578182 1.7208333 1.4003541 -0.59264636 1.4387476 -1.0303363 0.98161733 -1.1491697 -0.28047234 -0.44099024 0.8866598 -0.8584779 1.8708807 1.281675 -0.8692013 0.9007414 -0.50347865 -0.8529365 -0.96189237 0.037992146 -0.0837757 -0.034900654 -1.3341051 -1.0772 1.5021559 -1.0871001 -0.5339944 -1.3234587 0.14108191 1.1463115 -0.12392242 1.9176922 -1.3657142 0.9611294 1.7634361 0.15231778 0.3170743 1.0171033 -1.9098504 1.0093672 2.408174 0.40300447 0.1545253 -0.094603345 -0.3246741 0.79978514 1.6503485 -0.037452515 -1.2692208 0.015054752 -0.7375315 -0.3760641 -0.6908923 2.7754314 -1.2160172 -0.5673244 -1.7776906 -0.3881254 0.9206513 1.1608031 -0.5940837 -0.05102729 -1.016714 -0.27797136 -0.457318 -0.18632795 0.09160475 1.279422 0.10720562 -1.3520412 0.96549064 0.72329366 1.1811671 -1.1511121 0.17354582 0.8464458 -0.33959457 1.3304546 0.42216694 1.7515935 -0.20639668 -1.4736036 0.70951015 1.1318334 0.9777789 -0.64080155 -0.48368278 -1.1521467 0.13594975 -0.034891434 -1.3492144 0.44288412 0.7935712 0.91958356 0.4926698 -0.5100844 -0.9086002 1.3069533 -0.59565085 1.6255791 1.0775553 0.37117454 -1.2159902 0.65107703 0.5757981 -0.27776846 -1.8206083 -2.4112897 0.2591037 0.28211027 -1.1054004 0.95024806
9 0.506475 1.22162 -0.2624343 -0.18475014 -0.22733074 0.56172967 1.1779319 1.5343809 0.28080726 -0.0050927703 -0.0718895 2.700523 -0.6629216 1.1675336 -0.06413163 -0.29717022 -0.15024135 1.5814776 -0.23360044 -0.48115212 0.79631186 2.6798227 -1.3084643 1.1156236 -1.1604058 1.1219797 -1.2786807 1.825145 -0.8483313 -0.65251154 0.13648409 0.60814565 0.3378632 -0.26527867 -0.20827195 1.7979249 -0.8520588 -0.5050445 -0.7451925 -1.0855953 -0.57528424 1.5245265 0.9870359 0.73712754 -0.034780096 0.033497788 -0.013022575 1.1574366 -0.15676467 1.5666279 0.7304087 0.24837475 1.7239741 0.24613985 -1.2004609 -0.49984428 -0.31689942 -2.17017 -1.1563407 1.4568061 0.32298616 0.87459046 -1.1419489 0.59430254 0.22262284 0.5907422 -1.1611264 -0.42733324 -1.3103712 0.067410044 1.0859182 0.6530578 1.8359526 1.269267 0.29125062 -1.6008854 -1.09896 0.18934944 0.9845481 -0.23305781 -0.63658565 1.2262282 0.2368861 -2.2855785 -0.7446251 1.3421261 -0.024307953 0.046967797 -0.4668249 3.1486108 0.5887637 0.32373407 -0.58912265 -1.4299208 -0.554876 0.46605963 0.6960361 -0.4207033 2.2608645 -0.78038085 -0.0029760525 -0.6022045 0.666935 -0.43086168 0.3052391 2.0278132 -1.5480511 -0.21071701 -0.64265704 -0.13356255 -0.016729526 0.7582172 0.3551993 -0.91409034 0.7113315 -0.71261734 -2.0403774 -1.040604 -1.01904 0.44275135 -0.3711956 -1.4055696 1.120666 -0.4020597 0.12728585 1.2897968 -0.9329515 0.057552878
10 -0.3604239 -1.8928918 -1.2011218 -0.1207058 -1.3111373 -0.7174014 -1.0369412 0.020232802 1.141111 -2.134882 -1.4045113 0.3779494 1.1262375 0.8456041 0.42578873 0.52806115 -0.5824263 -1.1271157 -1.1285272 -0.09687005 -0.18250206 0.056881152 0.06959351 1.2101628 -0.24203628 -0.22269617 -1.933223 0.2167474 -0.08946201 0.08267785 -1.2190969 -1.3828827 1.7415771 -1.7888157 -1.2069263 -0.7799564 -0.08164755 -1.3027192 -2.5790212 0.055664107 0.5769549 -1.6237361 -0.36334983 0.1444349 -0.81214863 -1.3355361 0.12121943 0.7931504 0.2551302 -0.13396609 -1.0980029 0.061408352 -0.36907634 0.28941807 -1.0476979 -0.011339819 -0.2502574 0.5010867 -0.96950036 -0.9279158 1.1119533 0.37969622 0.097884685 0.46761325 1.3723849 0.0073870006 1.5016315 0.30015507 -0.9434531 2.3064723 0.14268519 -0.9814507 0.8167105 -0.47387308 1.0525519 0.65951836 1.1105045 -0.8100108 -1.0400172 1.3831264 -1.194793 0.2632993 0.93573064 -1.0030134 0.1482923 -0.45826483 -1.6563703 0.5732848 -0.7836759 0.57274276 0.18782456 0.78831124 0.111427546 0.08517522 -0.2995369 -0.46769246 1.4612144 0.1858457 0.60136265 0.23889636 -1.3092997 -1.1495426 0.4916747 -0.7617698 0.23942766 -0.43976077 -1.6004099 0.410008 -0.13646492 0.80147064 -0.3298223 -0.54310614 0.0857964 -0.14046624 -1.5190009 -0.9613167 0.18032838 0.11836391 -0.61064065 -1.0010659 -0.3007025 0.16483758 0.25578997 -0.099934846 -1.7837954 -1.7436548 1.2842147 1.1785433
11 0.20933978 0.05542641 0.027647834 -0.6634834 1.2608304 0.5587148 1.0237027 0.8178051 -0.16582566 -0.042270932 0.83384436 -1.7130564 0.4321379 -0.3020695 1.4485981 -0.7956372 -1.0738257 1.4626416 0.73797977 -0.51339257 -0.75128865 -0.8019901 -0.8034169 -2.4051898 -0.09272862 -1.7528925 0.51332134 -0.878096 0.6366578 1.4474539 0.66458035 -1.4684563 -0.33141574 -0.967267 0.08062342 -0.08517906 1.6722305 -1.41761 0.24760541 -0.061509795 1.6219394 1.5309772 -1.6147224 0.5125926 -0.6591093 -0.2987313 -0.6894897 -1.867189 0.71360207 1.1530733 0.15843163 1.5428712 0.46771374 0.50174063 0.22434756 0.06809013 1.0875884 -0.53077924 0.7071645 1.1973797 -2.4205184 -1.0797657 0.77027476 0.47102925 -0.8169267 0.59804475 0.21307093 0.8007632 1.3619181 -0.099410325 -2.831204 2.203558 0.5733442 -0.67112035 -0.50632507 -1.5718673 -1.166774 1.805309 -0.29791036 -1.2379413 0.4640393 -0.593041 0.3872747 -1.1584474 0.91677195 -0.8550281 1.058413 2.0723581 -0.94789696 1.3031533 -1.9922786 1.6770656 -0.39783552 0.45938575 0.21168618 -0.77772415 1.3972852 -0.99392056 0.64807737 0.5105283 0.98973244 -0.91237175 1.6480811 0.17030078 -0.15779883 1.5819398 0.81452066 -0.23209302 1.1025397 -1.1021117 0.5124239 -1.2788105 0.4116984 0.77768683 1.2673918 -1.0980957 -0.7316123 0.74391234 1.2786583 2.0817516 0.7473499 -0.6230727 1.4235853 -0.17317745 -0.09526498 -0.18446627 1.1986564 1.433721
12 0.6020871 -1.1532704 -0.025955819 -0.37695324 -0.670941 1.7270064 -1.0658804 0.41962045 1.1441941 -0.9108029 0.27618963 1.4786019 0.8398792 0.7557649 0.5613275 -0.6592869 0.032925192 -0.9979942 0.041888505 1.6357644 -0.3043312 0.010807272 1.3959484 0.045087848 -0.016202826 0.64354175 0.35940364 -1.2139546 -0.44847 1.3382312 0.59297717 0.9457149 -0.29004005 1.573696 -1.9210609 1.5501372 1.114752 2.5428922 -0.1146371 -2.2040112 1.6434864 0.3435663 0.13208655 -0.5239279 1.7416805 -0.7638564 -0.7693253 -0.17545143 -1.3344584 1.02764 -0.595418 -0.8638219 0.66081774 -0.4022978 1.1436623 -1.132461 -0.54636115 1.2561677 -1.2035167 0.40573832 -1.0650384 -1.0388405 -0.9001655 -0.8342275 1.3666773 -0.35846075 -0.12054342 1.283478 0.17598923 -0.027122857 -0.99719435 -0.020220688 0.97634375 1.2243365 0.21711709 0.7811502 0.3529007 2.5390687 0.49605116 0.8748549 0.39998114 0.720203 -0.22736923 -1.9089459 -0.49079886 0.20736948 -0.16844508 0.7446779 -1.3316828 0.6367688 -0.00662224 -0.7430617 -0.18221016 -0.009742844 -0.4264292 0.6368059 -1.0588582 1.1647937 -0.39884892 -0.5277873 -0.18946268 -1.3231962 0.76100904 0.14177682 2.2442718 0.39500383 -0.45555192 1.2938324 1.7730838 -0.35602838 0.019932186 -1.5738513 0.16222681 0.43126515 -1.8023715 -0.14551455 -1.269658 -0.1370427 -0.01969678 0.0056052757 -0.4972338 -0.1568315 -1.338318 0.5749945 0.43522456 -0.2535899 -0.57682693 -0.008358699
13 -0.49831212 -0.81979483 -1.6821007 0.26304713 -0.5710025 0.014224949 -1.106853 0.39161775 0.31267425 0.0004945504 0.1663105 -0.24375643 0.60771155 0.90600014 -0.8094047 -1.3326545 -0.52731234 1.1986184 0.66834587 -0.6286872 -0.79689336 0.8754135 0.89949125 1.3400747 -0.8686844 1.2406158 -0.42839238 -0.08786462 -1.709969 -0.6584923 0.3113221 -0.5277748 1.3563749 0.13249257 -0.11109825 -0.22928996 -2.0189898 -0.3844589 1.2707808 -0.29808822 -0.81907916 -0.9118492 2.1217742 -0.70307577 0.68022954 1.3916368 1.842956 1.281074 -0.22278199 -0.517323 1.1114483 -0.5903249 0.7995566 -0.14895172 0.46539113 -2.6360395 -0.67937917 -1.0938627 0.10142644 0.22586048 0.24937971 0.15027569 -0.19606504 1.7181038 -0.54105824 -1.2346454 -0.116830386 -0.79421914 1.6411684 -0.0076375683 -0.6940757 1.5412985 -0.8485468 -0.3432264 -3.0563343 1.1098938 -0.29753852 -0.09883819 0.40464693 0.35400727 -0.26027304 -1.0883821 0.4272648 -0.61759853 -0.11265882 -0.67075115 -1.0062207 0.9543281 0.04670045 0.09616403 -1.0912585 1.2367773 -1.7184478 -0.12411472 -0.8967018 0.2931264 0.42115426 -0.06426094 -0.55155176 1.7528894 -1.9584895 0.19763622 1.0028557 0.806994 0.85030824 0.5002525 -0.9530398 -0.32132015 3.1982267 0.53578 0.3940816 -0.34616318 -1.6034648 -0.25434616 1.5369424 -0.052451316 1.1245712 0.31605583 -0.47722796 0.030906426 -0.14216906 0.17635547 -1.4289168 0.8827389 1.2588669 -0.37411377 -0.27587137 0.97885156
14 -0.81900144 -1.4666246 -0.51757777 -0.81568205 -0.66476125 -0.53049004 -0.011644978 -0.8667399 0.56350183 -0.5415252 0.27280828 1.4424428 0.924933 -0.8377471 1.5044438 0.8132635 0.3657834 -0.15298945 0.87734956 -1.0803561 0.6921578 0.064987764 -1.6175522 1.5930265 1.8114105 -0.3264066 -0.45667332 1.1491523 -0.41509965 -0.97085154 0.048989195 1.3148619 0.8634948 -0.93925315 -0.38071984 0.18751341 -1.7772884 -1.1362989 0.055458046 -0.04701466 -1.6511974 -0.4618244 -0.31331205 -0.7160321 -0.25904563 -0.8344004 1.7963294 0.31528687 1.5047578 1.836644 0.040492557 0.44184014 -0.59395057 -0.065706156 0.6017962 -0.9685865 -1.1144434 0.98039097 1.5906198 -1.3836521 0.09864882 -0.14639907 -1.2305353 -2.1996465 -2.67789 0.30148154 2.801835 0.18339336 -0.7869794 1.2507144 -0.1732737 -0.18613574 0.8094509 0.7369615 -0.43629676 0.17323661 1.7610114 -0.91714233 0.33782947 0.86551577 0.7905254 -1.1935858 -0.2915494 -0.20828952 2.3535178 -0.19031733 0.12011206 -0.10998496 -0.18772338 0.3841141 0.88381755 -3.0289273 -0.59932023 -0.17292458 1.0519915 0.11658757 -0.6935952 0.42374602 0.6601583 -1.5467514 -0.4018443 -1.3387545 -0.6445607 1.4677947 -0.36849746 0.96941763 0.6894956 1.1006677 0.9103667 -1.5839635 -0.86034995 1.3047594 0.40876606 0.4466584 -0.51603 0.58221406 -0.009760658 0.9083225 -0.25173163 0.64632833 0.90124226 0.14895405 -1.4794589 -0.935411 -0.5533757 0.53942657 0.9167405 -2.1753383
15 -2.1857505 -0.6156883 -0.091322646 0.108917326 0.74861616 -1.2201655 1.4166489 -0.3743337 -0.9759258 0.74174863 0.61304885 -0.450527 0.040701993 0.9677969 0.57258815 1.188862 -0.011413703 -0.74977267 1.0558887 -1.1305264 0.35966977 0.3244415 -0.6406247 -1.8767513 1.3615919 0.32452103 1.6667497 0.034313757 -0.68354845 0.22790974 -1.2208287 1.4079542 1.2439879 0.7802613 -0.9360734 0.537763 0.8431388 0.30561668 -1.7866145 -0.017776877 0.6694259 0.40111995 -0.5856016 -0.35723463 -0.6545774 1.0086724 2.239701 -2.5837028 -0.71748114 -1.2086713 1.1624373 1.5252109 0.35148907 -0.45496517 -1.7131805 1.305874 -0.13804922 1.4273843 -1.3073652 0.009408318 1.9822967 0.4929459 0.8275401 -0.98687714 -0.6865548 1.8318897 0.25788602 -1.2946352 -2.715677 0.2208086 -0.3102938 -0.49437687 -1.8905592 0.27803883 -0.06567974 -0.1243182 -1.1932826 0.5125551 1.0533372 -2.5390844 -0.97059476 -0.85382396 -1.5352244 -0.16710795 -2.3795235 2.4676304 0.2923128 0.18051445 0.36840802 0.3900817 0.77231866 -0.41875327 -0.9336684 0.7650679 0.8169506 0.47808227 -0.55612856 -0.7938627 -0.3462075 -1.3559045 0.3680246 -0.130566 -0.23506503 -1.1543167 1.9002266 -1.5859568 0.94786704 0.17536351 -0.7319123 0.72948337 -1.5548493 -1.3966095 -1.5048264 1.0083284 -0.9149928 -0.90243703 -0.42624545 -1.4967524 0.011462281 -0.90647423 -0.6985749 0.42416504 0.24319744 -0.97985834 0.34148532 0.31167182 1.0238613 0.25945178
16 0.39770004 1.3955169 -0.87932414 -0.25444967 1.5683672 0.680521 -0.7926939 1.8235387 -1.069343 0.35271057 -0.13883777 0.9131413 1.2688887 -0.50048906 -0.89181423 -0.85432106 0.86434877 -1.2001115 -0.22291054 0.68312794 1.1248959 0.09296896 -0.8756581 -1.2345241 -1.1271014 0.8883914 1.1601602 -0.41018674 1.3171973 -0.3943966 1.4155513 -0.54583424 -0.34898213 1.0077574 -1.728158 1.1965208 0.55842584 -0.39560136 -0.10627974 0.27690825 0.7663335 -0.82086116 0.4337801 1.0766221 0.25480676 0.14453477 0.86008805 -0.034475956 -1.2751222 0.7623068 0.21364608 -1.8019881 -1.0364455 -0.8520252 -0.30619666 -1.3457674 0.44721073 0.33240715 1.7547517 -1.0507216 -1.5649039 0.09556324 -0.6404508 -1.0730098 1.4364525 -0.9496189 -0.42708766 1.1824671 0.9023839 -0.21621777 -0.16296187 -1.1768852 0.23356803 -0.16448174 -0.09999763 0.76102495 -0.33923063 -0.14238463 -0.62397665 -1.9518139 2.3819392 1.6150644 0.9475238 -0.42870596 0.9528899 -0.28866842 -0.21566594 1.2645861 -0.8885602 -0.32603124 1.827356 -0.3017163 0.6334936 0.13221742 -0.34651056 -1.0162364 1.8683075 -1.0935314 -0.40233833 -0.7326588 0.53400487 -0.56803226 1.2724108 -0.7418789 -0.183524 0.32419732 -0.90003306 0.4265252 2.1122026 0.44829935 -0.19321543 1.2136754 -0.19065964 -0.25357905 0.8581429 1.4037093 -0.54152983 -0.382343 0.7397456 -1.3573908 0.04631415 -1.7189987 0.33328938 -0.13212955 -0.32281283 0.6961779 -1.1474025 1.0511354
17 1.286452 0.21471229 0.95085084 0.3804571 -0.37920842 0.079045184 -0.37519887 0.5605961 -3.259937 1.0322322 -0.121093355 -0.46255475 0.054855913 0.42674798 -0.34016773 1.1434877 0.7761998 -1.5926374 -0.64497876 0.42686823 0.585574 2.093613 1.5506252 0.037974864 0.5341742 0.12953965 1.0017037 0.99192506 -0.45006597 1.0280352 0.93938917 0.18067645 1.150623 1.925469 -0.25648546 -0.38632646 0.34124106 -0.29917377 0.18909828 0.06791133 0.1443502 -0.77502674 1.0543109 -0.9742204 0.123349465 1.2342745 -1.0928026 -4.1108465 1.4743005 -1.0130302 0.09987619 0.6105581 -0.8369136 -0.017330157 0.42831448 -0.57393235 0.8946999 -0.07224756 -0.03187596 0.03162521 0.8045272 -1.5340362 -1.568193 0.022836816 0.13223897 -1.9110432 0.9828507 0.76103175 -0.8027383 -1.640586 0.57812595 1.7595602 0.3452886 -1.9346831 0.7182417 1.6475393 -0.061755337 -0.09008386 -0.67675835 -0.8148446 0.3833037 -0.10175527 -1.1417024 -0.6248933 0.5450655 -0.04284992 -1.0066286 0.28624567 0.53272355 0.70311487 0.56937987 1.8857177 -0.13205126 2.675621 -1.7016367 0.43268418 0.3162515 0.5515355 -0.050776258 0.0036244749 -0.4413602 -0.1308426 -0.17936411 0.0035280231 1.5099425 -1.9507362 0.36609685 -0.09244131 -2.4812238 0.2871069 0.10841818 -0.24130015 0.34301233 -0.12749535 1.5523772 1.1865033 0.8208651 -1.6197352 -1.5356554 -0.3934232 0.78560096 0.7715291 0.9440241 -0.15829104 0.53679824 -1.3469462 1.2948512 -0.20626092
18 0.3223949 1.758704 -0.336352 0.0129044615 -0.1308754 0.97395015 0.6082548 0.62769616 -1.1275364 -0.5162652 -0.23976152 0.66302806 -0.23017263 -0.27727208 -0.82471186 1.1828463 -0.002318738 0.8757073 -2.117336 -0.45279238 -1.6075373 -0.5265386 -1.0893763 1.0273393 1.8078825 0.25141743 -0.02821033 0.5177141 0.36631986 -0.91442585 0.5755221 0.79066974 -1.4665045 -1.214728 1.1183925 -0.9548144 0.18100727 -0.44151217 1.5952027 -1.9202793 -0.3825705 -0.32633916 -1.8387965 2.0004072 -0.1290698 0.073579915 1.5605302 1.1766022 0.61682856 -0.50499564 1.9737986 -0.79842025 0.034394853 -0.7140928 0.112829655 0.31183612 -0.55519634 1.2780006 1.0825782 -1.4089196 -0.2630461 0.110601 1.3244703 0.8053052 1.6617347 0.40139914 -1.1343063 -0.6720451 1.9488031 -1.13284 1.2687722 -0.6393895 -0.16683061 -1.0991558 -0.7134014 0.74152184 0.4752124 0.7969497 -0.22979139 -0.8742615 -2.644724 -0.75495124 1.234942 -0.29243708 -0.2997805 -1.5123242 1.1242957 -1.0171934 -0.9470237 -0.32539073 -0.036861673 0.35362038 -0.96993124 -0.50518787 -1.116009 -0.2517787 -0.1782299 0.7241344 -1.383938 -0.86417073 -0.722862 0.9291016 2.1187668 1.2366899 -1.3730164 -0.37031883 -1.181469 -1.24154 -1.3547406 0.24959455 -0.43913016 0.05819061 0.08259814 1.3721714 -0.75585896 -1.2061318 0.7654434 -0.7610511 0.15940814 -0.9516783 0.77685386 -1.1772509 0.9080529 0.31574357 -1.0405619 -0.042759176 0.72658557 1.1093874
19 -0.23716022 1.1664132 -1.4817321 0.6020548 -1.186628 -0.9483276 0.247983 0.6126692 0.23309003 0.816795 -0.06472805 2.1921823 -0.54792154 1.1762159 -0.99446714 -1.8875113 0.66732866 -1.7395886 -0.9297622 -0.03211133 0.03701945 -0.5795102 -0.9324726 0.60331124 0.88531864 0.8441578 1.0191485 -1.0957857 0.09754656 0.38270324 1.3106637 -0.30173886 0.23717962 0.66984797 0.42761186 -0.34941933 1.358331 0.094010204 -0.3312991 -0.7293713 -1.6537331 0.24505666 1.2790332 -0.5652847 0.9467365 0.91322935 -0.5411773 -0.7376082 1.4756914 -1.5242823 0.10679515 0.6469214 -1.2496507 2.055674 -0.8590547 -1.1677344 1.1213138 -1.9134521 -0.72068715 -0.22625002 0.105947934 0.099039115 -0.87161046 -1.0489608 -0.10381675 -1.7547302 -0.09403452 0.9739581 -0.19391069 0.14752096 -0.40871078 -0.3038163 0.3988506 0.2571745 -0.62131894 -0.6029763 0.23148589 -0.28533545 1.119968 1.8439268 -1.1075547 -0.7911829 -0.63973707 1.6367017 -0.24368568 0.911767 0.21198533 0.36839348 0.0091808615 0.68661183 0.03650306 0.4949831 2.1660864 -0.2112146 -1.1960287 -0.3378637 -0.76514566 0.49821305 0.12592228 -0.17576079 -1.4142265 -1.0662988 -2.3709545 0.6616557 -0.12117399 -0.8414332 1.2313961 -1.5813719 0.61507535 -1.8754921 -0.5967142 0.2432894 0.39229608 -1.0666263 0.86530656 -0.31634682 -0.8035844 1.4348623 -0.28340518 0.37879276 0.985361 0.88091034 0.24757281 -0.34473756 1.2164737 -0.22816104 -0.7318082 0.16543458
20 -0.82032895 -0.20181462 -0.61617464 0.08926146 -1.9992645 -1.2470504 0.5189162 1.0968294 1.1770312 -0.56558836 -0.603961 -0.5025084 -1.0447978 0.19476324 0.4789055 -0.5572216 1.1843222 -1.1479694 1.4632583 0.32778397 0.7117423 -1.6659814 -0.95157427 0.9698576 -0.025572145 0.43287352 1.4899733 -1.2587957 1.3695588 -0.20716707 -0.09662349 -1.3895903 1.7575198 -2.1874833 -0.09256645 0.23235236 0.22590286 1.1639689 -0.8168451 0.6885888 -1.1369871 1.5474977 -0.5490144 -0.9367797 0.537418 0.20550232 0.75506926 0.01322114 0.061212685 -0.9643012 -1.3193514 0.33839935 0.14466609 0.39349666 0.7040487 0.20072153 -0.34967074 0.20924337 -0.3145742 2.077964 -1.6372306 1.5516144 -1.0671191 -2.386941 0.5412243 -1.4519596 -1.3509964 -1.2156348 2.2918205 0.055641174 0.8873444 1.2816612 0.2226819 1.5316609 -1.1244622 -0.18929917 -0.36732617 1.0772772 0.6697921 0.2286234 0.49948123 -1.5841558 1.3117777 1.1653069 -1.1112736 0.3430109 3.4414651 -1.0291165 -0.0657036 -2.3811908 -1.5964867 -1.8672677 -1.4443915 0.4335886 -0.15364884 -0.5324674 -0.73625225 -0.2944416 1.1605265 0.52943206 -0.2779892 0.7853254 -0.78374857 2.2642736 0.8330106 -1.0386294 0.059082843 -2.769403 -0.66626954 1.1375319 -1.5021982 0.09523361 0.6109376 -0.30972505 -0.6653052 1.146792 -1.5000387 0.33493254 -0.26108196 0.14388764 -1.1953431 -0.27728358 -0.8403263 1.8875611 -1.9221812 0.6781829 -1.4154397 1.0072088
21 0.12576574 -0.06432101 -0.71812826 -0.40834633 0.81902564 -0.45660567 1.1680124 -0.0064815087 1.0136958 0.043658704 2.305245 0.4071423 -2.1223047 0.04511165 -0.016817894 0.19010605 -0.41778722 -0.47073963 -0.8237857 -0.3735681 0.1438316 0.7874407 -0.010657508 0.81413466 0.32038587 0.3915911 0.6893445 -0.99489236 -0.047027566 -0.35574248 0.32954514 0.4171182 -0.0944425 1.2518768 0.4928448 0.05823749 -0.3865477 -0.49628058 -0.2467186 0.9754824 0.07144673 1.5119307 -0.7751337 0.2016404 0.59317034 -0.39239633 1.7220348 0.5596424 0.20179157 -1.5135684 -0.72904956 -1.9495726 2.624907 -0.24618801 -0.43227962 -0.18667142 -0.7049348 0.3887852 -1.1736122 -0.25134316 -1.8396634 0.27684754 0.6399239 -0.36134452 0.65859187 0.039615545 0.021455683 -0.63525647 0.27615777 0.061965495 -0.12387903 -0.31243613 0.62066156 -1.2788581 -0.23127529 0.773886 -0.13062917 -1.4895824 -0.6328302 -1.59294 0.5172249 -0.19467057 -0.46844468 -0.7586117 0.62267214 0.5632392 1.7893692 0.11170826 -2.1704953 -0.91601896 1.0348849 1.0411681 0.62839204 0.19237469 -0.34028736 -0.3491926 0.2272632 0.45395648 -1.5789378 0.4659372 1.0519176 0.97273237 -2.2119813 -0.2848793 0.53614676 -0.06406406 0.38954413 -1.044343 0.49924797 -0.14188208 -0.7510242 1.2802169 -2.0907443 0.63116777 -1.1219723 0.23435543 0.38052255 -1.1524806 -0.6021182 -1.0908456 -0.36034474 1.4970924 -1.3604558 0.549841 -0.45596033 0.266532 1.5025791 -0.024493424
22 0.81742555 0.12333712 -0.10763985 -1.021736 -1.3918535 -2.3714392 1.1216838 -0.16489547 -1.5659716 -1.0174934 -0.3576563 -0.1303801 -1.6361564 0.08545533 -1.1073161 -0.5495345 0.8739036 1.1522318 0.7802037 -1.067387 -1.9794751 -0.33083776 -0.60400206 1.0790844 0.68540084 -1.6010909 0.21095167 0.14128792 -1.483447 1.591751 0.8802746 -0.28743038 0.63871217 0.47853047 -2.0433774 1.2982829 -0.27075657 0.21757838 -0.73384386 0.390754 -0.86675483 -0.0930643 -1.073005 1.4576147 -0.89719194 0.5692464 -0.20134269 1.2602106 -0.87561727 0.081931576 -0.88536054 -0.22362818 0.91078794 -0.9951971 -0.6774231 -1.1450387 -1.5182979 0.09970888 -1.0781255 0.85243714 -0.006204742 0.00415326 -0.298542 1.8884284 1.1302245 0.25501883 -0.64273715 -1.3519623 0.53616124 0.13077407 -0.42575875 2.4831722 -0.11857803 -2.3682609 -0.077537216 0.8803 0.7825351 2.0232074 0.47130066 -0.18281567 0.51300615 0.08057167 0.2750911 -0.53717524 -0.763578 0.49792895 0.40589452 -0.49887225 -2.2466798 -0.48297876 0.22020273 0.40596867 0.96473086 -1.6543905 0.1683408 -0.9906646 -0.59760696 -0.7038297 0.9980028 -0.8530797 -0.11938069 0.60689235 0.03215751 3.5436509 -0.53555447 0.84271 -0.46774152 2.1648664 -1.5289819 -0.8693703 0.05385161 1.6466807 -0.0669453 -0.2645529 0.26396826 -0.6172759 0.51297754 -1.8846383 -0.32341093 -0.9701814 -0.067233354 0.27861005 -1.2937516 -0.51136464 -1.1344637 0.2401349 0.7540594 -0.5606191
23 1.4910164 -0.2878293 -0.35118532 -1.1694779 -0.3814546 0.23402515 0.32023337 0.6826901 -1.3356982 0.45217562 0.19192503 1.6276953 0.5334589 -0.2821973 0.12117861 2.9628859 -0.0044743344 -1.8347644 0.60286343 0.63962626 0.3331806 -0.5540662 -2.0800016 -0.6210185 -0.44653693 -0.08020759 -0.15084797 -1.6774873 -0.6216793 -1.2705301 -0.8685629 -0.27430788 0.024751397 0.44655403 -0.8362828 0.064318195 -0.9756098 -1.3547833 -0.5418446 1.4731501 0.06577424 0.94843453 0.3752031 -1.2784555 -0.023286061 1.0167563 0.12573726 0.078855544 0.021016411 -0.5650184 0.973339 -0.55281866 0.10750107 0.91360134 2.2279193 -0.8452383 -0.2300162 0.008404943 0.93431085 -1.0487471 -0.64681214 0.19941203 0.27068675 1.0471727 1.7795452 -0.5512466 -0.013248208 -0.017812619 0.1149245 -0.1073114 0.689814 -0.4925507 -0.3921099 1.1196653 -0.6051683 -0.700025 0.26199475 1.6880902 -3.5038981 -0.5584837 0.52213144 -0.011047078 -0.52738625 0.09178038 -0.21448004 -1.2673175 0.0774359 -0.2968868 1.5258688 0.41506538 -1.2218884 0.78891486 0.87219965 1.9271052 -0.24229832 -0.22457358 -0.5409362 0.44150686 -0.16670081 1.8158152 0.4062787 0.19476996 -0.18083908 -1.0766926 -0.24253872 -1.8648837 0.48384732 -0.15429664 -1.0565654 -1.3239996 -2.0458727 0.63758594 -1.8414577 -0.041882314 1.8400903 -0.7221998 0.6375197 -0.22239849 2.255269 -0.6965228 -0.8041121 -0.18026474 -1.9821106 0.45860225 0.7555953 -1.8970102 0.79486966 -1.5530844
24 1.5101889 -0.39390054 -1.9587986 -0.81425714 -1.8599211 0.40896428 -0.36870718 -0.9137551 -1.7092432 0.32818425 0.1347589 -0.08673942 0.7691679 0.3884972 -0.59992254 0.41708967 -1.1718929 0.25850284 -0.5112741 0.7923271 1.5178351 1.547809 0.8411429 -0.068255946 -0.98303574 -0.083417445 1.0496093 0.035571363 0.4371762 0.041620564 -0.73842233 0.75834864 -1.0565103 -1.6650381 -1.1832052 -1.2192883 -1.8554218 -0.8204128 0.662773 -0.4126805 -0.23176713 -0.4701744 -2.7618628 0.8397276 1.2319871 1.1567644 1.1497608 -0.131428 0.4629308 0.12615466 2.1982265 -0.84015536 -0.19507338 1.6763068 -1.2165784 2.4890783 -0.33912754 -0.25995162 -0.537503 0.34456503 2.1339056 0.87426674 0.17943375 -0.692825 -1.5332222 -0.5440126 0.19938649 -1.4329553 0.2645974 1.0948738 -0.35859945 -1.8573456 -0.43476304 -0.19818203 -2.706801 -0.2504905 -0.5350249 -0.72654194 -0.4337366 0.025407698 0.63279057 -0.12053067 -0.39248163 -0.31120268 0.6313324 -1.4420129 1.0753397 0.2104401 1.6627303 -0.4764129 0.94017035 -0.31704056 1.4260287 -0.5221704 -1.4986376 0.44402918 2.2764611 -0.74374217 -1.1719089 0.3706204 0.025293374 -0.11908754 -0.12137217 -1.2810992 -0.23706155 -0.18291596 -0.15932205 0.029474536 -0.20261264 0.30400217 -1.0030695 -1.4400382 -0.19942571 2.783444 1.9180056 -1.4701364 -0.6940831 -0.5176811 -0.748657 -1.569928 0.16568854 -3.1515422 -1.1163708 -0.30478048 0.060152642 -0.1799873 -0.12536588 0.0008020128
25 -0.64368606 -0.8650207 0.12358481 -0.12349831 0.567698 -0.3015104 -1.1504333 -0.21617557 -1.2728745 0.35636175 -1.6121231 0.100853086 -1.0362511 0.38594687 0.078925416 -1.112905 -1.3247123 -0.108920135 -2.0657275 0.8709133 -0.5912259 1.1297889 0.28203902 0.8076902 0.6234777 -0.991228 -1.0182726 -0.080108166 1.711898 0.30307454 0.38323715 -1.2233111 -0.5730645 1.9866558 0.82325643 -0.31905898 -2.0062783 -1.0475976 0.80374604 -0.09151128 0.079989605 -0.83424467 -0.34062853 0.5522567 1.2946472 0.37929034 -1.6476618 -0.84524804 0.30909842 0.42193216 0.33481753 1.4336176 0.122293495 0.26542538 -0.29974562 -2.5694602 -0.07403711 -0.6998883 0.6411532 -0.15884562 -0.9595151 0.9986819 -2.0373185 -0.031427123 -0.22685778 -0.7962705 -0.75343305 -1.4438835 0.039218456 -0.63929564 -0.7029291 0.9594317 0.49298787 -0.2603938 1.2333176 0.24719861 -0.94074154 0.3884923 -0.69009465 0.5847153 1.0704955 1.4304634 -1.071443 1.2954232 0.44283497 -1.8711476 1.2330592 0.13789016 0.04232265 -2.3862016 -0.74582607 1.5438348 2.0900006 0.3097147 0.23735964 0.39961463 0.8501001 1.4908011 -0.3886019 0.564136 -0.10891511 -0.2512007 2.2165694 -0.76718026 -0.014556601 0.1803793 0.24720766 0.6056873 -0.9607475 -0.19373243 -1.4618365 0.29709405 -0.15245406 0.3161866 0.38379282 -0.2503615 -0.11066455 1.3500596 -0.31125215 0.6549541 -1.4783183 0.05611791 0.0870269 -0.72319216 2.0658329 1.2230033 1.8189393 -0.69687223
26 -1.4706854 -1.0632292 -1.0815305 0.93914574 -0.6061593 1.5436945 0.38621655 -1.0061487 0.1319765 -0.5313457 -0.44659907 -2.5266242 -0.41088292 0.24945302 1.7519585 1.1594163 0.53122395 2.2655537 0.11745745 -0.46162057 -1.5542653 0.5031284 1.5769593 1.959258 -0.35272318 0.77981967 -0.3667178 -1.0830573 1.6199396 0.7142424 0.9091151 -0.41121635 -0.9047615 -0.715714 -0.43342382 0.39552182 0.8534306 0.0009980464 -0.43113306 -0.1900184 -0.18776423 -0.032971274 -1.3204309 -1.1375942 -1.5097933 0.26374 0.31922755 0.18637177 0.434884 0.024151785 0.58376706 1.1826037 1.5286212 0.3187857 1.0673237 -0.71959114 -0.15284295 -1.5412197 -0.25887305 0.30175456 1.5925574 -0.12176367 0.42967048 -1.1312859 -1.0935606 0.91705865 -0.027607894 0.09230442 0.9413683 0.04899621 -1.3813957 0.72332203 -0.4855134 -0.25789896 -1.8649708 1.582241 1.9793006 -0.15457214 0.5097662 -0.04247039 0.47677204 -0.46704876 -0.23007622 0.93621236 0.88069254 0.60263985 0.25912014 -0.37832785 -1.0983421 -1.34114 -0.38664526 0.23641883 -1.075294 0.26740828 2.6859562 -0.057765253 -1.3580356 1.5426613 -1.0998391 0.9142939 0.74743587 -0.91191125 1.4372623 0.10714016 0.4431287 1.2105709 0.16600315 1.3377349 -2.4834342 0.68994695 -2.8214765 -0.4146068 -0.6401463 0.40335676 -0.86809874 -0.050513186 -0.49049112 0.23656344 0.9849831 0.26765138 -0.78479314 0.50782704 -0.9013073 1.3557116 0.32501087 -1.245821 0.9888028 -0.02443373
27 1.6252407 -1.1806408 0.57187814 0.64491695 -1.1473919 -0.39600816 -0.31731433 -1.3116263 1.45496 1.1364182 -0.24783793 -0.65632707 -0.3817393 0.7218468 -0.94464195 -0.10330064 -0.75718635 -1.114292 1.0581571 -0.27640224 -0.5210009 -1.1612977 0.75214326 1.9599792 1.362339 -1.7046701 -0.0839742 0.54550326 -2.2434704 0.1320682 0.48251322 -0.15746935 -0.15247425 1.2697976 0.73817587 1.011742 0.4859764 0.15525697 0.21164744 0.9210959 0.8220904 1.1240598 -1.8877076 -0.076199934 1.0258648 -0.53432274 -0.20066658 0.73394513 -1.162998 -0.3201556 -0.97086304 -0.11225816 -1.767487 1.4685804 1.2031987 0.019717528 0.0941142 -1.3176199 1.5246875 0.08891444 0.108123556 0.074308276 -0.07252875 -2.0596268 2.0231707 -1.0675596 -0.22601403 -1.0909783 0.9901728 0.02081686 0.30056295 -0.5405594 -0.6150225 0.53754026 -0.79248154 -2.037277 -0.96600115 -0.4264334 -0.147334 1.6841947 -0.16948023 -0.86682385 0.8523712 1.2129687 0.55516964 -0.2794963 1.3045411 1.6279222 -0.5105858 0.958512 -1.0472699 -0.82087564 1.0830799 -1.9215229 -1.8972782 0.20548773 3.008952 -1.5811666 -0.45395976 -0.32941717 -0.14915992 1.106083 0.8346723 -0.020433972 1.1910453 -0.18724501 0.07611025 0.40360174 -0.20156045 0.6006723 -0.50307906 0.7867204 -0.46835718 0.79360276 -1.6330794 -0.25691003 -0.6499556 0.68309367 -0.037426956 -0.77484953 -2.103236 -0.0057761604 0.2362522 0.91929996 -1.1787369 -1.8236618 -0.5046 0.15886049
28 1.045683 1.4215672 2.0932584 -0.1792022 0.24624005 -0.6207466 -0.6635997 -0.049706977 1.5766441 -0.4178408 -0.76211864 0.6430849 -0.05797358 0.03549943 -0.60264444 -0.44819972 -0.3178933 -0.7017459 -2.234406 -0.8972752 -2.0261872 1.3382223 -0.9376982 0.6338542 -0.4476148 1.191479 0.42581218 -1.4102278 0.36953706 2.106395 0.5071392 0.31422254 -0.99266917 1.088191 0.1389992 -1.1978877 -2.408492 -0.101787195 1.4126065 0.30785596 0.59919447 1.6285415 1.1148586 -0.43594587 -0.5642586 0.69279975 -0.32329306 1.6328888 0.31809473 -1.4034879 -1.3354337 -0.8213973 0.23890196 -0.5551745 0.24690951 0.30677277 -0.1006344 -0.94024825 -0.46014747 -0.2175746 0.5013049 0.6289274 1.3995228 -0.047065176 -1.1742177 1.1006433 -1.0111126 2.2232106 0.5739374 -0.4346941 -1.0154961 -0.061166834 0.14813514 -1.1261864 -1.1600796 0.077848874 1.0290698 1.7285444 0.36568934 -0.22331268 1.8779447 0.3087931 0.2033296 1.1095419 0.08408881 1.9770329 0.05901244 0.32852605 1.8942695 0.083424866 0.807653 -0.47153318 -2.4279308 -1.1359738 0.2878002 -0.9429853 0.45434192 -0.43690744 0.069603965 0.9643584 -0.030068032 1.242534 -1.4245971 -0.12791193 0.010243559 0.66622376 -1.9112074 0.43073806 -0.8520842 1.5069679 -0.22050804 -1.6109363 -1.67738 0.07504409 0.57024044 2.4085233 0.47206175 -0.5839993 0.6441421 -0.2688554 1.8161408 -1.8336297 -0.19609115 -0.1829184 -0.4412177 -0.4622114 -0.10216247 0.225723
29 -1.6089652 -0.42142522 1.0713233 0.8514966 -1.5094348 1.1358033 1.0541117 1.1957955 0.31219575 -0.5670245 0.61201 -2.1019819 0.42135862 1.1896929 -0.024370467 -0.47555184 -0.03589531 -0.16613294 1.2607701 -0.05010269 -0.25189355 0.19892044 -1.0269997 -0.65594995 -1.1021909 0.84844244 0.24019597 -0.7125058 0.8516099 0.4245025 0.862844 -0.010608054 -0.75373363 -0.86278766 -0.5970354 -0.18356448 -2.1929626 0.7375531 -1.4542084 0.46063536 0.9256477 0.45449838 -0.20728572 -0.44944632 -0.15700789 -1.1714709 -1.2994041 0.7137754 1.5920613 -1.0534208 1.2265762 -0.26209703 -0.90543497 -0.053261973 -1.1009781 -0.59347767 2.0126839 1.1532204 0.60584795 -0.54164106 -0.63546276 1.0117499 1.3217033 -1.2592053 -0.69468874 -0.24601422 -0.68473697 -0.15908574 0.41022286 -1.309604 0.407872 0.4038327 -0.3021828 0.66202927 -0.66942114 0.23579799 0.8277525 0.12947568 -1.5666937 0.26595303 0.79726475 -1.209717 -1.1680808 1.8910362 2.2752326 1.6806873 0.6674737 -0.8077407 1.4283141 0.46241456 0.90354776 0.510279 -0.72952026 0.08076721 0.018284729 0.91874266 1.005239 -0.40316224 1.8818182 -0.01956927 1.2136942 -1.8575404 1.2154688 -0.6439795 -1.2964516 -0.41001546 -0.6459661 -0.9382604 -0.49083206 -1.5531505 1.3200152 0.80118364 0.863311 0.095398754 -0.566349 0.5707199 -1.051665 -0.9111156 1.385226 0.85864437 0.08332139 0.09262338 -0.7518665 -0.38526264 0.39609665 1.6448854 0.85175705 1.44441
30 0.8060595 -0.60031736 -0.87363064 -0.509514 -0.50402856 -0.21918283 -0.88929504 -0.18948221 0.3912048 -0.7277307 1.6302208 0.687162 1.5539608 -1.2284598 -0.38341957 -0.031184044 0.35756743 0.64378345 1.0290732 0.05682195 0.08429153 0.28011099 -0.2026777 -2.0698042 -2.3122988 -1.0614415 -1.1012491 -0.23886621 0.37269756 0.1315761 -1.8160741 -1.4592705 0.08007311 0.32201934 -0.7767531 -1.7098134 -0.3144289 -0.5806873 -1.1765715 -0.3234672 0.44553226 -0.7049117 -0.5003348 -0.65682846 1.2841228 0.7731006 -1.0825204 0.0028203973 -0.4613731 -1.0549487 1.2988936 -0.8821948 -1.1574075 1.370293 0.6193369 -0.13763249 -0.97426486 0.4968413 0.92517996 -0.25338528 -0.8551537 1.5489992 -0.05558826 -1.3459864 -0.1592376 1.9956508 1.6000181 0.32459313 -0.095291205 -0.92475253 0.6545018 -0.5520683 0.027321333 0.70690465 0.15198678 -0.021572 2.283976 1.5194758 -0.5985675 -0.70746696 0.4480293 -0.6093441 1.5081131 -0.70661396 0.62209755 0.6484059 -1.4579917 -0.3968027 -0.73332244 0.35125688 0.12617265 1.3987676 -1.3302653 -0.9840942 -1.0222346 0.26351508 1.4475605 -0.9195117 -1.4891979 -0.68949753 1.2985377 0.002381195 -0.76632255 -1.6676482 0.7795541 0.008513426 -0.52615786 -1.5477452 0.56254447 -0.016767193 0.6480123 -0.10306374 -1.3408955 -0.08071458 0.2907754 0.106806904 -0.2026121 -0.96209514 1.2512498 -1.4345711 0.24039917 -0.34530464 0.8405634 -0.8811743 -0.7615818 0.519744 -0.09824184 -0.76662457
31 0.7211519 -1.510374 -0.3685369 -0.24787569 2.181873 0.22470377 -0.2409388 -1.672158 -0.58519506 3.288474 -0.9866029 0.08779425 0.23073842 2.3422487 -1.8501011 -0.92383003 0.9117021 0.63681877 1.7029757 1.3288717 -0.88951826 0.14346978 -0.71793956 -0.17660075 0.60454506 -0.24346325 1.0681685 -0.120335974 -0.13185546 0.5749028 -1.0782787 0.24437879 0.42275456 0.07987646 0.51591164 0.068531334 -0.4363775 0.62957114 -1.0076659 -0.9913926 1.1466451 -0.58454674 -0.87013733 -0.29619652 -0.07188509 0.4955336 -0.39483085 -0.044827007 1.1962929 0.025319427 1.0062073 0.38577756 0.43176165 1.900886 -0.78040546 0.21322738 0.63288075 0.8229048 -1.4710687 1.5744476 -0.6832514 0.119234875 -1.8469974 0.18071629 0.49970862 -1.5307642 1.9055035 -1.2662454 0.45994502 0.6110565 -0.7850281 0.43488365 0.40474752 -0.10796981 0.0042213993 -1.1092509 -0.017494474 -2.0618575 1.139046 -0.8606049 0.94462156 0.84615064 0.30902237 -0.09966126 0.5751287 0.22002 0.47324654 1.3825115 0.097052604 -0.46821925 -0.83082616 -0.11610256 -0.83556753 -0.39390272 -1.0750694 -1.5055022 -1.1052097 1.7108526 -0.20582236 -0.14963917 0.43062252 0.1729153 -0.9638317 0.45786658 0.087927796 -0.31839854 0.3387011 -0.8524725 -0.94264936 1.2400512 1.2545359 -1.3299208 0.43284252 -1.3513991 -0.08357502 0.31969875 0.30887666 -0.14604396 1.9907023 0.17149615 -0.62324345 -0.33521673 -2.8423908 0.6600065 1.0440012 -0.101015694 -1.9693923 -0.09856244
32 -0.009600469 1.1012677 0.6182325 -0.10869501 0.3616579 -1.0185513 -0.25794417 -0.1819363 0.9109723 0.97963274 -0.7502251 0.042817846 -1.4843878 -1.8150982 2.0834029 0.4594904 -0.8370688 -0.40848956 -0.41277122 2.135075 0.22697926 0.7479656 0.81150764 0.49619415 0.10589475 -0.042071097 0.4260358 -1.5866588 1.8347831 1.0510246 1.0955492 0.07016567 0.8401675 -0.10337551 1.7191495 -0.9640842 -0.43068027 0.17133218 -1.4813797 1.0653243 0.19910489 -0.74994373 -0.82568896 0.66908824 0.96175337 -0.38212612 -0.6322756 1.1218672 0.59837747 0.15319213 -1.2691557 1.3092763 0.35581538 -1.8469206 1.6126449 1.2210615 -0.4688719 -0.6139233 1.0276473 -0.54933363 1.5574188 -0.6083838 -1.2294705 1.9077498 -0.49522924 -0.6935621 -1.8504946 -1.6552594 -0.55064374 1.1747903 0.2807581 -1.6011612 1.1863227 1.1003045 0.15415959 -0.9808519 0.8119746 2.8149464 0.69357044 0.52002895 1.0571458 -0.96011806 0.9193331 -1.5186665 1.1477288 0.58217853 -0.07856374 1.3222394 1.2656336 -1.6292684 0.8330005 -0.60184777 0.40581203 1.4301957 0.72441036 -0.14942709 -0.30713612 -0.38250113 -0.09067852 -0.07056695 -1.0226158 -1.2835823 0.42271402 1.7608968 -0.37652522 1.4369614 0.16384763 -0.076036274 -0.9746055 -0.47195104 -0.9774761 0.05566677 -1.2735645 -1.1555727 1.845807 0.56829154 -0.13139836 -0.87628394 1.9237791 1.6274469 0.06411049 -0.35786825 -0.91269284 -0.64857095 0.09711047 -0.6587125 -0.22138987 -1.5233359
33 0.16601256 2.461712 -0.013623869 0.9032337 0.62119377 -0.77529687 0.60642284 0.0633886 -0.015964523 1.2991935 0.5835192 -0.5153502 1.1421556 1.1825572 0.1841018 0.7023848 0.21679823 1.471203 -1.9192816 0.459299 1.0920515 0.5802612 -0.2517282 0.5075363 0.92575765 -1.5753729 0.7248585 0.21191093 -0.2754248 0.6830817 -1.6773249 1.1897516 2.5560122 0.72833467 0.06267062 1.1259348 -0.6744719 0.70151395 1.9203218 -0.3481153 1.0272156 1.7680812 1.4542989 -0.38032603 1.772716 0.19953197 -1.6899481 -1.0597718 -1.6454668 -0.55633885 0.66677576 1.4196657 0.75164014 -0.22332679 0.26634833 0.6107338 -0.3639818 -1.6094029 -0.47494876 -0.2937928 1.1302809 -0.05656079 -0.5825545 -1.2487783 -0.15719528 -0.77530086 0.048154816 -1.9775556 1.1499085 0.061715044 1.0965261 -1.5437522 0.4117382 0.26341543 0.09256905 -1.4296013 0.771173 -0.33243474 0.16913036 0.06737551 -0.4332882 0.052949052 1.0693064 -0.6028358 1.8116161 0.20953788 0.6058988 1.3737546 1.5119927 -0.33533177 -0.29126096 -0.21465649 0.06588752 -0.6835052 0.24429439 1.0939275 0.34561703 0.7069136 -0.7081054 -1.4497167 -0.34146783 0.36607277 0.1828065 0.6499397 1.9852393 -0.75770247 0.48669893 0.952658 -0.9643612 0.53142357 0.9735446 -0.610613 0.58707196 1.1876913 0.5646302 -0.4869914 -1.5805656 1.5574899 0.7691121 0.9146539 -0.39899972 -0.61038 0.3677106 0.64426947 -1.7030454 -1.1126933 0.6177149 0.76222646
34 0.20859657 0.41729113 0.009533226 0.6747114 -0.20370635 0.5763847 0.6125485 0.0766536 0.99372756 2.4671216 -0.17463365 -0.0774815 0.43456763 -1.7548604 -0.047643133 0.6092347 -1.9170462 1.1911668 0.7485052 -1.4690032 0.5111313 0.47779092 1.6039741 -2.0054662 0.12117778 -2.3042924 0.9380979 1.0281206 -0.021766039 2.1568925 0.90264 -0.034973346 -0.63925064 0.39302543 0.10409226 1.4701858 -0.0031766419 0.03947742 2.1984606 1.019961 0.10032727 -1.2243266 1.0215578 0.89064515 -1.0017797 -1.01351 2.4199867 0.9873054 0.098222256 -0.5493696 0.8033566 -0.63074404 0.34322736 1.1505388 0.055309955 1.1115491 -0.047995523 -0.39097923 -1.791479 -0.82774425 1.6987815 -1.7948798 0.9141713 -0.64593905 2.29885 1.7336597 -0.51069987 -1.4961114 1.745308 -0.27386776 0.84898794 0.21243039 -0.46944034 -1.2872229 1.1134511 -1.5915233 -1.7082107 1.2087095 -0.56818527 0.82957184 0.6159735 0.09505009 -1.6185727 2.8063004 -1.3607641 0.29785797 -0.7652099 -1.0660832 1.3598464 -1.3915348 -0.035259902 1.4715197 1.0837523 0.5122199 0.49577123 -0.26757628 -0.52570504 -0.28455123 -0.18514335 -0.24310374 -0.574697 0.36253938 0.6263758 -1.6868323 -0.97520703 -0.18765871 3.6205866 -0.80078775 2.1947224 1.6443357 0.1968194 0.031027773 -1.4538075 -0.91831213 -1.5728921 0.33163536 -1.366685 -0.14602041 0.040795125 0.35132632 2.3754003 0.44594547 -0.4126847 0.33876583 0.96427876 -1.8486761 0.41846913 0.24281336
35 -0.3134491 1.4871613 -0.07574699 -0.76167965 -0.45962155 1.1118015 -0.22449571 -0.08620836 -0.23542657 -0.587476 0.9484858 -0.20869562 -1.4904916 -0.5550461 -0.8190489 0.66646576 0.93262404 -1.1627052 1.0214891 -1.3978864 0.4942108 1.4235643 -0.3688219 0.7365273 -0.019121826 -0.42028946 1.0804608 0.13055348 -1.1875212 0.2088001 0.8577629 -0.0373276 1.6919738 0.22306089 -0.3762955 -0.059806626 -0.18315016 1.4258417 1.30791 0.7188248 0.09787188 -0.33451152 1.0078135 1.4481097 0.16053267 -1.7083324 -2.2339425 0.42535132 -0.91588557 0.42362007 1.0130205 -0.0519847 -1.0262384 -0.7953041 -0.18471259 0.17802526 -0.080884494 0.4682956 -0.21415043 1.6024555 1.2421688 0.60534537 -0.15170604 -1.5752658 1.6080368 -1.1982684 1.4931287 -1.5666625 -2.5451505 0.9221317 0.7694679 0.3557764 -0.8863296 -0.3175671 0.6026045 2.9054317 -1.094053 -0.023385458 1.399824 0.24517898 0.6378797 1.5121305 -1.9083364 1.2303938 -1.224567 -0.37257782 1.18595 0.24440938 -0.66770077 -0.1506347 1.8194088 1.2233964 -0.66419196 -1.1097342 -0.9249113 -0.66508824 2.2448595 -0.28932613 -0.24358441 0.3794939 -0.14354724 2.162985 -0.44976148 0.067367435 0.11517188 -0.68563974 -0.751792 -0.0424821 0.21264869 1.0606328 -0.986589 0.6565844 1.1658198 -1.5678841 -0.22481969 0.37702313 -0.9918415 -0.5072585 0.4074144 -0.3521762 0.7983911 -1.0457361 -0.6409038 1.7091373 1.2210528 0.39223862 1.7708758 0.58988565
36 0.2343737 1.908994 -0.5732445 0.3252503 0.026251366 -2.1730695 -0.2166072 0.7611569 1.1848717 0.43639782 -0.03921594 0.012741835 -2.1310148 -1.164697 -0.14546624 0.48545358 -1.3372048 -0.209989 -0.108309396 0.8520024 0.61465275 0.85727406 0.24995181 1.3655921 0.17559475 0.6962319 0.83805025 0.35847643 -0.9507431 -0.292779 -0.46343142 -1.9074612 0.22975996 -2.0032685 2.229962 -0.105373345 -0.4466096 0.8884279 0.30781665 1.0660102 -0.8192188 -0.8848715 1.3549466 0.20115097 -0.4442387 0.27986753 -2.7634332 0.36217812 0.043344606 -1.4821321 -1.0620332 0.46479475 0.53397346 -0.24703471 0.40685588 -1.2946017 -2.0059366 1.4418373 0.7093543 -0.53582835 -1.1269447 -1.4182777 -0.19487116 0.119497806 0.8491466 0.911586 1.1352183 -1.5087652 0.005825393 -1.4791784 1.6215407 0.26982132 0.45858443 -1.5520939 -0.76106244 -0.8925188 0.8362915 0.6990733 1.7627692 1.350764 0.2517279 -1.3408571 1.1548039 -1.5504087 0.50469244 -0.37182656 -0.7320266 0.39666855 0.86622554 -0.5785227 0.47510833 -0.21735702 0.14463805 -0.2861288 2.2063732 1.5256704 -1.7382824 2.3009846 0.8970483 -1.1743973 -0.7518051 -1.1495842 1.0513413 -1.1164696 0.1911065 -0.21289097 1.2411438 0.48829556 -1.0591214 -1.348333 0.26399472 -0.3929702 -0.86242086 0.81706685 0.3200951 -0.08247306 -0.829164 0.0041900454 0.22239445 0.5991913 -0.31644854 0.22438538 0.19598617 -1.3723394 1.2430379 -0.03975245 1.5332686 -0.36732054
37 -0.094774865 -1.3819405 -1.7649224 -2.5202157 0.41956407 0.52645904 -0.5563361 1.2065581 1.2307335 -0.60719925 -0.18252882 -0.2897714 -1.3871166 -0.97026867 -0.6544763 0.99235666 -1.2752385 -1.1247842 -0.79675406 0.7548432 0.6063041 -0.41142946 0.050066024 0.034209304 1.197318 1.0973014 -0.7955712 -0.12664062 0.8378991 0.32227898 -1.7026649 0.99845165 -1.1807486 1.0610477 0.49990383 -2.9208906 -1.0348033 1.6702358 0.6694741 1.8024195 0.1617573 0.1722992 -0.1070898 1.3277096 -0.949442 -0.14270356 0.6455907 -0.12890911 0.712037 1.4819982 0.4829446 -0.39962885 -1.0111537 -0.20686382 -0.54265994 -0.7449222 0.91557366 -0.77928 0.7228758 -0.7824676 0.627065 -0.27151045 1.2929434 1.2769498 -0.48986802 -0.013783184 0.9458951 -1.6415274 0.49374208 0.4007944 -1.3317823 -0.5217524 1.8908165 0.5029398 0.9450414 0.52792513 -0.2617622 0.4221912 0.13822106 -1.2306056 0.5501699 -1.2563211 0.013475976 -1.1513778 1.2177314 -1.7824175 -0.7257316 -0.48674732 0.76298004 -0.22187178 1.1753609 0.357902 -1.1500633 1.1051632 -1.2909592 -0.03425304 -1.0801713 -0.5580269 1.3349733 -1.7408751 -0.7589551 -1.7939405 1.0767828 0.23461947 0.066249974 1.0528337 0.48544216 -0.3867589 -0.42194182 0.73474866 1.9168831 -1.2567391 0.1218909 0.80851394 1.3911606 0.82883924 -0.24638015 -0.8845575 -0.72403586 -0.16338854 -0.119497694 -0.20660318 -1.8433181 1.3023098 -0.22524 -2.1041455 -0.7421488 0.016217306
38 -1.1915759 -0.57623756 -0.99718225 -0.27239862 -0.25287566 -0.14140949 1.1270212 -1.1189928 -0.13722137 -1.3472649 -0.46162122 -0.23099805 1.2151613 0.016657129 0.97189254 -1.0548253 2.1139574 0.6506075 -0.61231405 -0.9588299 0.29520074 -0.52760404 -1.5769331 0.6728645 -1.0809841 -0.17288978 1.3144071 0.7246291 0.23598684 2.3348453 1.1216072 -1.9096812 -0.015633898 -1.674648 2.1828394 -1.273342 0.5321927 2.0489204 -0.17942856 0.35037258 -0.12508285 0.0714651 -0.30513075 -0.562342 -0.12894985 -1.2962343 -0.15242745 0.31884328 -0.62222475 0.19865833 -1.4427633 -0.17557575 0.19259644 -0.21165025 0.68538916 -1.1620779 -0.5688693 1.2841412 -0.06670117 0.44186294 -0.1773864 0.7205749 1.0821593 0.040909585 1.1103972 0.6218295 -0.23863952 0.85676855 -2.1235774 1.8999463 -1.2791985 -0.24478215 -0.53914857 1.1165904 -0.89390427 0.7145368 -0.23204766 1.4664001 0.60194105 -0.55205137 -0.47228703 -0.7612855 0.54961383 0.5951046 -0.49251035 0.38923785 -0.87281805 0.12325019 1.8774381 0.37215644 -0.92576486 -0.279167 0.5727713 1.6039727 0.073126696 1.2723799 -0.100823596 0.9176904 0.38375452 -2.1349032 -0.82460326 -1.6089747 -1.0054554 -0.34917593 0.6299431 1.1251659 -1.0311722 -0.62053704 -0.12129176 0.63522106 1.566413 1.3237658 -1.1545807 -0.19636226 0.7466357 -1.1423098 0.768076 1.2162261 -2.7119439 -0.11523729 -0.5360572 0.3364291 -0.07717183 -1.1899478 -0.29339054 0.39134574 -0.93183446 -0.07994837
39 -1.2418888 -0.90844977 -2.615101 1.967115 0.10784098 -0.82436687 0.23436232 0.050844293 -0.34436318 0.15210709 -0.19360483 -1.4425117 0.2674242 1.4546845 -0.6003598 -0.83791816 0.16159321 0.48221537 0.37515384 -1.2521693 -1.6822364 -0.9651466 0.72346514 -1.188659 0.7985611 -0.04325702 -0.4973877 0.09372496 0.38200065 0.79165685 0.144556 -0.018702766 -0.15543707 2.678379 0.5545141 -0.16506732 1.0063386 -0.8708958 0.7318399 0.2510905 0.26456168 0.51744056 -0.23772356 0.93202597 0.6638644 -0.7294686 1.1331452 -0.88067526 -0.9904539 -0.033254314 0.76706815 -0.101678364 -0.5888787 -0.34806356 0.553382 -0.5250013 0.12333294 1.3289359 0.48710954 0.53237236 1.6156152 -0.88139606 -0.32665637 -1.9450254 -1.8519392 1.2129298 0.26828918 0.47056437 0.28759795 1.3501507 -0.06523694 0.30227444 -0.004888461 -0.96151197 -0.4423621 0.7312899 1.110168 -0.14679857 1.2475454 -0.07461616 0.29901198 -0.30068338 0.9018206 0.036160346 0.46821752 -1.5209823 0.13027126 -1.1922804 -1.0547771 -0.10289217 2.2378635 -0.9263608 0.3368696 -0.26705754 0.9541322 -0.14934236 -1.9617511 -0.05852338 1.1076242 -1.5301794 0.94104284 -0.5045902 -0.46898836 -0.38879955 0.470775 -1.1170946 0.10725335 -1.0507516 -0.14215185 0.07844721 1.5604488 1.0163943 -1.389815 0.23146687 -0.4329473 0.14894813 -0.17976382 -2.3409321 0.22461812 -1.0065815 -1.0148666 -1.0279413 -0.71819097 -0.14181213 1.2009145 -0.48111936 1.7606654 -1.7368557
40 -0.99754244 0.107947454 -2.0539532 -1.9760803 0.22586688 -0.8003185 -0.89365095 2.1036642 0.06971834 -0.032263335 0.40830886 -1.2468789 -0.35252687 0.194046 -0.42086387 0.0041161254 1.350456 -1.3122373 1.473547 -0.30206636 -0.030886387 -1.1631579 1.2299086 -0.14295517 -0.35837063 -0.26659602 0.92185134 0.9122654 0.4851876 0.74439806 -0.49443066 -0.8298076 0.07266819 -0.40159607 -0.8198054 0.86644083 -1.1125922 0.6645175 2.9780087 1.3184507 -0.21767628 0.9767634 -0.6226314 0.028445797 -0.2771477 -0.016257148 -0.46677628 2.0958958 0.5911969 1.4434355 0.42561382 2.8606763 0.7343328 -1.1357274 1.356872 -1.0769658 -0.8544595 0.2560948 -0.7140194 1.2496767 0.68690217 0.58140945 -0.31490007 -0.7560373 1.6163634 0.1218427 0.6347359 0.7083605 -1.5128247 -1.3411175 -0.18194568 0.5523022 -0.56566155 -0.5736531 -0.94373965 0.6174849 1.3658873 -0.35607025 1.4088066 -0.39241964 -0.62752366 0.36253837 -0.2769969 -0.623723 -0.055063765 -0.4622456 0.05442443 0.793853 1.2421962 0.20016019 2.247889 -2.393632 2.0658045 0.9557766 0.11690761 0.5786059 -0.48978144 -0.3682638 -0.8805856 0.5889305 0.6837143 -0.7074583 -1.0499092 -0.74583274 -0.711143 0.6647309 0.58713067 1.3366884 1.2053639 0.17040955 0.3050091 -1.8423015 -1.2792296 -0.061468106 -1.5658884 0.26103258 -1.2019134 0.9240104 -0.45277852 -1.1296824 1.7658628 -0.037522364 -1.1909516 0.32551047 0.595371 -0.9113676 0.63349026 0.27004355
41 -1.8373681 -1.1803129 -0.09552081 -0.49618378 -0.8521344 -1.1988668 0.68498445 -1.4844308 0.110494584 0.2150207 -0.6124328 -0.63123286 1.0481049 -0.7099027 -0.46891007 -1.4751416 -0.2519596 1.068795 -0.8805154 0.8900826 -0.12551352 -1.1785505 -1.1060226 0.14198539 1.6837143 -0.33764398 -0.8974137 -0.7622607 -0.08612745 0.02537764 0.96272403 1.3498341 1.26271 -0.44613683 0.55374897 0.9990238 -1.5783073 -0.7876137 -1.247436 0.085641086 0.7177035 1.4534631 -0.4048409 0.45910847 -1.4850284 0.8234993 -1.9818068 -1.2341884 0.2970744 -0.7679212 1.3697672 0.10474183 -0.6387382 0.7359774 0.2681137 -0.24047714 1.3297235 -0.25464445 1.2280267 -0.4510995 -1.9252274 1.3592247 0.9720373 -0.4860147 -1.1335181 -0.15476012 -0.26485142 1.1261085 -1.0118891 0.76698714 -0.91105115 0.2365108 0.10803979 -0.62312573 -1.9515252 -1.2223089 1.251933 0.3996618 0.34493017 -0.33782902 1.0552315 -0.31725904 1.1342607 0.39865962 1.2391306 0.508115 -1.2468455 -0.054990195 -0.9241445 1.8223687 0.1837204 1.3189164 -0.37932524 -0.5268655 -0.25388536 -0.81778556 -1.5852462 0.39792776 -1.0740616 -0.96658164 -0.28171128 0.6002455 0.6083111 -2.573803 0.20984347 -0.76974785 -2.042556 0.61736965 1.0315566 -0.21690765 -0.33290103 1.3586134 0.13982731 -0.7713523 -0.4734834 0.6330038 0.02612538 0.67147857 -1.03856 -0.37312952 0.3156877 -0.90789413 -0.36003262 1.931083 -0.28431204 1.8411356 2.1365054 -0.6708126
42 -0.38499078 0.6875825 -1.2448394 0.73406845 -0.32335418 -0.80557066 -1.197855 0.95836407 -0.7998754 -1.2402234 -0.892115 -1.5137129 0.46257332 -0.98110354 0.21093419 1.5034815 1.8075341 -0.7953516 0.07973356 -0.46449018 0.7137361 0.37959218 1.3104365 -0.67534906 0.619627 0.3835535 1.5768586 -2.5495641 -0.78282315 0.80667526 0.41442814 0.070127204 -0.54754394 -0.18317449 0.27353752 -0.9620857 -0.2646874 0.17234752 0.2888059 -0.122883156 0.391681 0.17030814 0.5854533 -0.15224415 0.05987251 -0.5285093 -0.16355845 0.5226946 0.6064416 -1.0269301 -0.053564742 0.30029786 0.17147514 0.04360099 -1.2164559 0.18858679 -0.12015908 -0.1364335 -0.39579812 1.2519588 0.7505368 -1.393305 2.1227412 2.3221738 -1.4934509 0.66900873 -1.9947681 1.0594765 0.5605442 -0.11196832 -0.16695513 0.21177706 -0.7095677 1.1190327 -0.49296662 -1.3344721 0.50755066 -0.5284763 -0.7425392 -0.7456207 0.09841913 1.302328 -0.50697577 -0.33300412 -0.33454758 -0.59967023 2.140054 0.81604606 1.3520299 -0.9710935 0.13781612 -1.5467145 -1.1817077 0.58048254 0.47694865 -0.57436824 0.024649957 0.14989631 0.81825376 -0.050073043 1.7532604 -2.122018 0.19370681 0.5670681 0.12436229 0.3546449 0.5639567 -1.1247748 -1.943321 2.5548208 -0.6503597 -0.0062166597 1.6012411 -0.14505827 0.3378767 1.5047092 -0.6345272 0.25577146 -1.8071169 0.8761737 -0.89475507 -0.0012808625 0.29773882 0.2270884 -1.779672 -2.2551804 1.1807537 -1.0476642
43 0.035682984 0.6049416 1.7055963 0.25726756 -1.0331767 -1.7169276 -2.1044383 -0.85167265 0.62347716 0.6858439 -1.3016242 -0.09423544 1.0242462 0.7910314 1.2653165 1.0760604 -1.3044614 0.8914985 0.2591208 -0.8156548 -0.21561691 0.47379938 0.37056786 1.1994431 -0.44830024 -1.2620143 -0.55005264 1.0502044 1.1632288 -0.30456954 -1.0040845 0.044372775 -1.7596204 -1.0947982 0.06944956 1.455465 1.4456189 -1.0384979 -1.077041 -0.56801724 0.3917832 -0.093483835 -0.9707331 0.70793325 2.1131926 0.3914328 1.7522646 -1.0472946 -0.57619524 -0.29569367 -0.8076547 0.911609 0.99980706 0.13262516 3.1600475 -0.012698079 1.0462562 0.4144037 -0.0072085005 -1.0287461 3.3711739 0.18770486 -0.3615923 -0.119312085 0.57693714 -2.4005735 1.0373598 -0.29131353 0.70019805 2.192252 -0.17190562 1.3083206 -1.3498179 -0.15649335 -0.4854745 -1.2606164 0.51708174 -0.3725968 0.8940731 -0.5200206 -0.77975047 -0.116207525 -0.064284086 -1.5604466 -0.5683391 -0.048778117 -0.3113158 0.22668731 -1.1325264 -0.0050613927 1.511848 1.2031612 0.8461086 -0.9852751 0.66990143 0.8484135 -0.62563753 -0.62777394 -2.0451279 -1.1621436 0.8026974 0.9487775 0.131742 -2.1173782 -1.0455863 -0.92780703 0.15108378 1.5573012 0.34689355 -1.3145386 0.9120112 -0.025769265 0.61502326 -0.7084461 0.9247274 -1.1808558 -1.1666092 0.14084719 0.7960874 -0.76867676 1.8958998 0.49716163 -0.8873301 -2.6876514 -1.1188685 -1.1106627 -0.31153333 -0.02895124
44 0.36111087 -0.23938268 0.17336361 -0.44828954 -0.84076196 -2.3203197 0.6101543 -1.3955365 0.6395887 0.9384063 -0.18807678 1.2635055 0.29638535 -0.29179528 -1.0905395 -0.7430019 1.5028409 0.009028169 -0.82138646 -0.98209095 -0.15156646 -0.058130875 -0.029305449 -0.13914861 0.46695253 0.79205453 1.605121 -0.9664684 -0.7971879 0.92815936 0.71214044 -0.69960153 0.17238724 -1.2217716 -1.5730731 -1.1198685 -0.13898551 -0.49376693 -0.0578518 1.3423281 -1.1036305 -1.1203244 -1.1699996 -1.6414607 0.16833085 0.49569085 -0.96045333 0.3050392 -0.7700806 0.22665548 0.82226187 -1.9862823 0.021188194 -0.10260896 0.81861913 -0.4295994 0.20167622 2.1081862 0.3060475 0.97689 -0.47207108 -0.6550256 -0.32861134 -2.0220811 1.0217437 -0.80065185 -0.2126157 0.15181117 -1.1880168 1.1135321 -0.32952088 2.0996754 -0.13388892 0.24217628 0.26935145 -0.71868676 -0.42869818 0.012641985 -0.057887156 -0.94278896 0.46610108 0.00901599 -1.0852774 -0.67634815 1.7078559 0.7213027 0.6663974 -2.1747906 0.9554018 0.5308219 0.2980133 -0.62979174 2.0422843 -1.0037409 -2.071939 -0.8235935 1.0468186 -0.9912453 -0.019806994 0.6014375 0.6336375 -1.2938632 1.2880008 -0.39159134 -1.6361524 0.8329308 -0.59331834 0.67508376 0.18106857 1.2416261 -2.0420575 -1.436274 -0.98398364 1.1783035 0.93160754 -2.2759712 -0.31891295 0.36911616 -0.96308565 -0.559295 -0.30617356 -0.83630526 0.53166634 -0.46508607 0.3479043 -0.59238976 -0.80265445 -0.1272711
45 -0.74564654 -0.16054547 -1.5540829 -0.2789665 1.4733771 -1.0067947 0.48385918 -0.24692845 -1.0678093 0.0080353115 -0.8727059 -0.5811492 1.6411955 -0.45878816 0.15566929 1.1678766 -0.84634304 0.19032794 -0.32573664 1.1678683 -0.092800245 -0.55713636 0.0006746451 -0.48733106 -0.15327139 1.5464646 -0.800983 0.3025136 0.7700201 0.01893115 -0.70669466 -1.4081388 -1.3915217 -0.24361672 -1.529542 0.9754262 0.025179543 -0.4442751 0.19882616 -1.0637454 -0.5955126 -2.741612 1.0744704 -0.04125903 0.16695715 0.507746 0.07766665 -0.72559285 1.3056018 0.55323577 2.004542 -1.4884925 -0.25818944 -1.1300086 0.5816856 1.8753636 0.19157831 0.076515704 0.7291077 1.6632546 -0.5042617 1.2171602 0.31814462 0.28504765 1.0115929 -1.3772599 -0.6220025 -0.08011076 -0.06637251 -1.4884509 1.3483224 0.8952231 -0.94807917 0.39858183 0.44520646 -1.0794196 1.4732105 0.65573853 0.28209427 0.13193363 -0.12055714 0.24340245 1.2108392 -0.33671638 0.38890985 -0.5804391 1.3502507 0.21908094 -0.6240936 -1.2212328 0.2773589 0.36721238 1.0581927 -2.1251502 -0.13335693 -1.0170478 -1.4300673 0.67105716 0.46524802 1.3959045 1.285561 0.4527285 -0.3467663 0.6413067 0.20889601 -0.21212141 1.209174 -1.2472227 0.29608962 1.6851414 0.45563623 -2.0575426 -0.9894105 -1.1159868 0.7300906 0.6440329 -1.4917306 -0.011956831 0.1512961 -2.0131984 1.0267488 0.21026796 -0.8024815 1.5766892 -0.4383643 0.20475473 -0.6431539 0.79213953
46 0.8620747 -1.0816121 0.08324239 -0.3420758 -0.09262161 0.95248306 -1.0395186 -0.995771 -1.7792592 -1.3801434 -0.12851088 -1.83613 0.019562596 -0.71348035 0.23926441 -0.080260046 1.3771529 2.3201902 -1.1083913 -0.81809884 0.63831574 0.06946218 1.2940855 0.22606367 -1.0650891 -0.43193942 2.0596924 2.1154745 0.37900496 1.6180903 -0.4324981 -0.558227 1.5875381 -0.38612568 -2.038675 -1.0707139 0.2888297 1.3217738 -1.2508906 0.22388835 0.46027386 -0.70176834 0.12821895 0.8181448 -0.008554487 -0.7404834 0.31315008 -0.8817221 -0.4958693 0.642333 1.0745076 -0.017075738 -0.2983432 0.61280674 0.9772023 -0.045768242 -1.2615921 -0.7860941 0.22875656 0.1103239 -1.791327 -1.496608 0.57287085 -0.38995278 -0.6617999 0.47265926 0.013415407 1.3591516 1.244603 -0.12679625 -0.3791876 0.45712376 -0.40568072 1.4530884 -0.9002521 -0.14130937 1.6038554 -1.1976364 -0.69555825 -0.53495187 -0.6900684 1.4562715 -0.5640456 0.9950252 -0.22372721 -1.0154611 0.5668023 0.16717221 -1.6150492 -0.7072157 -0.3593749 -0.55169845 -1.7843827 -0.048075054 -0.92619115 -0.5263538 -0.17443997 0.93153787 -1.0591388 1.413635 2.0575535 -0.80780524 0.74686116 0.36695704 -0.5219763 0.7319727 0.37385127 -1.2061783 0.43787256 0.5497501 -0.74112815 1.1948061 2.7775805 0.23546848 -0.7263506 -1.3292073 -0.27509478 0.0384399 -0.11124855 0.582265 0.7999026 0.8351981 -0.57541126 -0.083405256 1.3429526 -0.4431248 0.35284582 -0.57192063
47 -2.064523 -1.592258 0.8454493 -0.9286936 -0.09524824 -0.2240743 1.6603624 0.5029806 0.7037818 1.1339216 -1.1000768 -0.46349487 0.114863075 -0.123774454 -0.17513485 -1.115372 2.403515 1.8891412 -1.4984267 0.48529756 0.43022513 0.33191243 -1.004817 1.1775087 0.041478053 1.5270388 0.8840063 2.3816452 1.3832899 -0.71588707 0.30302808 1.1907688 -0.7802317 0.37546375 1.7000872 -1.2807153 -1.172493 1.2209245 -0.6658158 -0.76431257 0.54908466 0.34132016 0.034772392 1.0164938 -1.8866969 -0.44180307 -0.4126864 -0.54255664 0.57892215 -1.572365 0.4220021 -0.74982065 -0.13406129 -0.41627732 -2.3044367 0.16166812 0.3082928 -1.4672397 0.56518555 0.53317124 -0.23954694 0.33342552 0.3860327 -0.21914288 0.7690189 -1.6724273 -0.4034485 0.35796365 0.4517681 0.01177888 1.3733468 0.8396682 0.73365194 -0.8447404 -0.8698303 0.83867806 -0.07826062 -0.7141913 -0.3579789 0.28348655 0.9690603 0.302785 -0.598154 0.0760805 1.4178754 0.5277238 1.7277638 -1.0824016 0.45023835 -0.24187008 -1.9117262 -0.13604222 -0.37056306 1.1134034 -0.7739197 -1.3146927 -0.11025972 0.24331746 -0.33377212 1.3930523 2.086901 -0.7179009 1.4664098 0.34865868 -1.6603451 0.5494524 -0.23599888 1.0396106 1.7101833 -0.41567922 -0.3004484 -0.27861246 0.3558797 -0.1201717 -0.16306469 -0.104776375 -2.387246 0.98513526 -0.9992269 -1.3094369 1.110261 1.3666824 0.55274904 0.12492782 1.8004563 0.97384447 -1.2202121 1.0755512
48 -0.3442434 -0.5819343 -0.21057211 0.099793226 0.009472364 0.74074507 0.82104933 0.95714194 0.4098818 0.4866639 1.3872074 -0.56112325 -0.21493499 0.17986168 0.30483347 -1.611375 -1.4194336 0.98037416 -0.26195824 0.24763002 0.37371662 -0.25455382 -0.65754646 -1.3295834 0.40008694 -0.4751236 -1.3079294 0.9583844 2.2458968 -0.2111204 -0.3577995 -1.2549462 0.53794336 0.010954688 1.4009383 -1.2502149 -0.39598662 -0.007911765 0.778125 1.1464385 -0.59673905 0.59662384 0.7629538 -0.9262124 0.6279604 -0.57581145 -0.023218406 1.207993 0.94663733 -1.0248773 -0.20970395 -1.7139788 -2.107296 -1.5672225 -0.16635455 0.8050274 -0.5726614 -0.82248896 -0.49207786 -1.6540495 0.1201212 -1.2738427 1.3063972 -0.8460684 0.07943108 -0.57291716 -0.31501296 -0.4350365 1.0346707 -0.34402144 -1.3312901 -1.3642142 -0.39830077 1.8210852 0.42608348 -1.2450802 1.6631122 -1.2979869 -1.3877262 -0.5920924 -0.761612 -0.09716771 0.6883383 -0.2301825 -0.9500107 -1.2146667 0.3524402 0.5496812 -0.20383559 1.0253284 -0.31554368 -1.6196159 1.0859463 0.13874371 0.62520105 -0.19064586 0.70978075 1.0019385 0.9775904 -1.7802283 -2.2136402 0.314148 -1.1269332 1.1821681 -0.08887279 2.529583 -0.1690228 -2.096377 -0.5181939 0.98827577 -1.7532856 -1.4779586 -0.16889599 0.059180044 0.26078624 -0.18084016 -0.806676 0.5085886 0.37110397 0.22204183 0.41860378 1.4313866 -0.6539602 1.0455593 1.2616218 0.27729023 1.8895917 0.8483709
49 -0.43047306 -1.1644381 1.0889105 -0.5830579 -0.14090839 1.2215146 0.6131407 2.3268757 0.5506297 0.9644634 -0.36366838 1.3831872 -0.0058153025 1.1057323 -0.5102769 -0.30619574 -0.3534826 -0.51923263 1.2037108 0.16696629 -0.58956605 -0.55285645 0.8270851 0.20912738 0.48293355 2.391056 -0.003958228 -1.3152817 0.4967757 0.7377365 0.36488184 -1.0291626 0.9564128 0.53598595 0.29374415 1.2206945 -0.25390095 0.8545849 -0.7967061 0.33670658 1.2287521 -0.14865968 -0.22313593 -1.0983946 -0.4579091 1.1963413 -0.38548818 -0.7975418 0.7843611 -0.4830805 0.34144574 0.43340173 -1.1757164 -0.12086796 0.26583156 0.78289694 0.18381286 0.3523057 -0.79832673 -0.018597683 0.7543081 0.41227326 0.10989202 0.8625547 -1.2143613 -0.9487429 -0.7487895 -0.11374611 -1.5026623 -1.8126827 0.3627018 0.31138098 0.46769607 1.5486213 -0.07778686 -0.9976221 -0.6275515 0.25236046 0.14108038 1.4265876 0.6709261 0.6582335 0.09233904 0.6465572 0.7330086 -0.10629716 0.551818 -0.6820042 1.2979814 -0.9349305 -0.35886526 -1.4411598 -0.081147596 0.1603728 -0.12265542 0.35763 1.3110453 -0.3830947 -1.2642626 0.8327902 -1.3254064 0.8626842 0.31978455 -0.4898356 1.2904536 -0.90024555 2.203915 -1.0883274 -0.50046545 -0.2941095 -0.29476973 0.9737428 -1.0897268 0.5488729 0.08049035 -1.5001729 -0.068589844 -0.9602919 -0.935023 0.39684048 -0.09232436 1.0688815 1.2067182 -1.06268 0.0815285 0.23580214 -1.4257104 0.14604484
50 -0.20403142 1.2312664 1.7659839 0.9310132 -0.61528593 -0.01838473 -0.39331794 -1.7575874 -0.8192459 0.54924613 0.638479 -0.18305242 0.46787146 -0.8222957 -0.9576516 -0.2885165 0.41435766 -1.0878199 -0.9219947 0.5076979 -1.3343384 0.89904606 -0.08717908 -0.3390999 -2.7648225 0.300568 -0.87001616 0.07330857 0.55548126 0.910255 0.41274074 -0.42116624 -1.0268751 0.29130316 -0.044363853 3.906283 0.5585495 0.76917684 -0.57128155 0.66389436 -0.33802432 1.5852319 -0.65759104 -0.7515399 -0.7637485 -1.2727401 0.7000583 -1.2445859 -0.8965464 0.35877463 0.1322927 -0.64531535 -0.74131304 -0.60819703 -0.25967282 -0.43869945 -0.3662846 0.56171155 0.1422405 0.60842896 0.46217287 0.56017894 -0.8351911 -0.28899977 0.89175695 -1.3367931 -1.7295656 -0.55730104 -0.3641987 -0.41899806 0.2081138 0.21862395 -0.017429624 -0.7680892 -1.3290223 0.970297 -0.4323065 -1.7069777 0.04998652 -1.7227569 -0.24318491 0.78568405 0.6281312 -0.5397211 -0.31469783 -0.33387578 0.53151447 -0.5124379 0.8449354 0.1031132 0.15005124 2.9357042 0.46547642 0.38217625 -1.6348453 -0.30379346 -0.43503848 -0.5005415 1.6856849 0.58334523 -2.1988103 -1.8763013 -0.37266573 -1.2366979 0.76268107 -0.80581224 -1.0848591 1.5871463 -0.10261359 0.06646969 -0.28521988 0.08180567 -0.37720528 0.5497747 -0.92054397 0.84072363 0.21647017 2.5604687 -1.3348436 1.1583451 0.09155081 0.70475596 -0.13264933 0.5294838 -0.07529472 0.11890194 -0.8045433 0.46422964
51 -0.24300198 0.78376245 -0.0063191913 -0.026178036 -1.6207025 2.1423416 -0.65082914 -0.5338811 -0.73276365 -1.778987 1.5411265 -0.97133064 -1.6878641 0.9126735 0.21840316 0.49180377 1.1229628 0.2272415 0.652821 1.2098324 -0.88673466 -0.24945265 -1.1292269 -0.09991443 -1.8145686 0.7081764 1.8798118 -0.58631974 0.34575543 0.07233575 -1.2556502 1.1392206 0.89200974 0.8428143 0.93244064 -0.55269325 1.0162354 1.7878536 -1.9300275 -0.03505337 1.0479742 -1.6544195 -0.090202145 -0.9639631 1.12998 -2.3941877 0.38818341 0.77952284 0.6926577 -0.22682098 0.062010534 0.89219356 0.19171037 0.8579821 0.040810198 0.16828828 -0.664648 -0.0015075796 1.2385813 1.0854216 0.16474731 0.60059136 0.6804872 1.2731491 1.6738822 -0.16882019 -0.39634407 0.10410091 -0.7899378 -0.6124733 0.011980462 -2.1802545 -1.5882435 -1.6241082 -0.120725356 -0.67345375 0.17633054 -0.23924239 -0.81718135 0.3217681 0.24353187 0.50099343 1.1058961 1.0588391 1.0715857 -0.5459971 -0.58470637 1.1193107 -0.3572051 -1.1021248 1.2913259 -0.9524409 -0.079976216 -2.3623846 -0.094661035 -1.2607924 1.0822468 1.0715579 0.9364493 0.9239887 0.92391497 0.7095782 0.08374428 -2.0135007 1.1326824 0.68137366 1.4138936 -0.11598767 -0.8909797 -0.8168047 0.83918417 1.5823587 -0.6714198 0.5897779 -0.89487237 0.06368359 -0.52446514 -0.96602255 -0.99369437 0.9998353 0.88408095 -0.21347208 -0.36554778 -0.79855216 -0.116512574 -1.5180291 -0.58307564 0.51505435
52 1.436277 0.41786152 0.101995036 -0.14756536 0.74619997 -1.400766 0.9088358 -0.7403546 0.442969 -0.3785917 -1.154317 -1.1549343 -1.1687492 1.0579053 -0.5086008 -1.4381846 -1.2246177 -0.4614073 -1.2920144 -0.6995177 -1.280395 1.6349541 0.2688331 -0.8269355 -0.8788988 -1.1454794 0.017427031 -0.03635069 -0.2575674 0.74449813 -0.17734638 0.6017838 -0.54242575 -0.1246377 -0.11323385 0.86226135 -0.32427627 0.8480595 -0.042051617 -0.56070095 0.008790818 -0.17125253 0.5793942 1.4565651 -0.75092584 0.52177763 -0.37493113 0.14655538 -0.89145523 -0.6206306 -1.1825784 0.54632896 -1.07182 -0.5873327 -0.77487856 -0.38131675 -1.8058387 -0.3984161 -0.21904403 -0.010700252 0.51670665 -1.0762718 -1.0638014 -0.1293518 1.0224917 -0.14265451 0.35192764 0.5616219 0.65560555 0.54327923 1.9509853 -0.43697774 -0.49618483 -0.11418847 0.8959899 -0.43267718 0.14830494 -1.5595583 -0.29488495 -1.2013636 0.6464981 -0.50131905 -0.1991334 1.5940331 1.4438493 -1.8391609 0.80659205 2.1384177 -0.13963722 1.5489725 1.1517583 -0.81231844 -0.4642514 -0.62086374 0.5959686 0.0624576 2.715518 0.542843 -1.3699062 0.66120267 -0.51445866 -0.3049481 -0.48907402 -1.5982207 0.53843176 1.301432 0.113846354 -0.76603496 0.6309813 1.4738183 -0.50654477 -0.18591806 -1.6961073 -0.7697371 -0.09997391 0.062244203 0.70525575 0.47905675 -1.4943676 1.0705628 -0.47726193 -0.95367324 -0.27130634 0.2053815 -0.4236842 0.49181494 -0.19640881 0.018753465
53 0.21798404 0.4280287 1.0262594 -0.29838738 -1.1224619 -0.7628044 -1.4744564 0.15948181 1.4767938 -0.36791357 0.24897137 -0.7901274 0.24379557 0.14237137 0.61557084 -0.4462142 -1.2809992 2.2392583 -0.7439001 0.8817073 0.2740323 -1.336972 -0.53141916 0.34582856 -0.70922667 -0.17193303 -0.2813784 -0.8997362 -0.1701285 -1.0510712 -1.9207009 -0.36048383 0.55382913 -0.37714052 -0.2754223 -1.1515359 -0.40039665 1.0324513 -0.50632817 1.4600449 0.5628584 0.14871919 1.6179435 1.7065349 0.87297946 1.2028579 -0.11156214 1.8249998 -1.9561429 0.63298225 -0.4612933 -0.6848597 -2.330648 -0.06647751 1.446214 0.37725952 0.71928275 1.6698282 -0.9221357 -1.9345652 -0.42914551 0.14327306 2.0693521 -1.7361921 0.26439112 -0.3377137 -1.3246074 -0.87160563 0.70696515 -1.0222049 -1.69511 0.09598479 -0.40792865 -1.4296745 0.32454473 1.3543304 0.507166 -1.3781791 -0.6710212 -1.4617443 1.9072624 -1.184197 0.8151212 -1.3042507 1.0287405 0.04640328 -0.87873566 -1.4408101 0.3356606 -0.24866281 1.4376255 -0.48195714 0.60437167 -0.53472716 0.12873948 -1.1661471 0.25863242 -1.763393 0.50557345 -0.82413393 1.1294895 1.9223894 -2.1885397 -0.1582779 0.51751137 0.19579011 0.521095 -0.2942037 0.5761488 1.2598622 -1.6253386 -1.0576272 0.57799333 -0.6827213 -1.641292 0.49981257 0.10705788 1.2372522 0.3959881 -2.209152 -1.8030242 0.6238941 0.9758945 0.3849645 0.30084708 0.10327839 -0.7738754 -0.2380451
54 -0.4035442 -1.1114073 -0.57258844 -1.8697821 1.0995208 -0.2951924 -0.61710113 -0.10139311 0.46712828 0.9926514 0.10272987 0.5391712 -1.4850265 0.18789938 0.18103704 0.9572906 -0.59903306 1.9195144 -0.6632735 -1.3993303 -1.0208759 1.2568678 1.687847 -1.1197895 -0.289377 -0.7153854 -1.66068 0.55063874 0.15712097 -0.42570007 0.8053406 1.0773692 -2.5820339 0.1550668 -0.93005204 -0.54509085 -1.4282703 -2.465558 -0.12224397 -0.8415849 -0.51980335 0.69141555 0.7547949 -0.959508 0.011522934 0.4909458 0.12251545 -0.8261999 0.055013087 -0.12582587 -1.1086063 -1.3095819 -0.82271254 -0.74735516 1.8433017 1.2585598 0.034556497 0.079901665 0.87884325 -0.44629803 0.69751406 -0.46086416 1.1977599 -1.2807292 -1.057404 -1.8234869 2.3580945 0.26153255 0.9745717 0.78203976 -1.0057359 -0.7787508 0.5125842 0.45729384 -0.53651124 -0.5467589 -0.32549688 0.5603519 -0.81839406 -0.45726356 -0.5568706 -0.69177806 1.6188283 -0.7118278 0.5691707 -2.1324682 0.29623076 -0.1441455 0.4780673 -0.4121373 0.41691202 0.18327622 1.000138 -0.030825403 -0.3660443 1.6714188 -1.2130878 -1.3230581 -0.12497348 1.3140786 1.3065604 0.3742257 0.15501067 0.2248615 -0.21866086 0.04438745 -1.0860968 -0.3622921 1.0155972 1.2808557 -1.0652945 -1.6157503 -1.7983391 1.5178176 0.22204326 -0.61069274 0.7505873 0.64864063 -0.010595045 1.5783998 0.7546132 0.31109536 0.35687053 -0.4221503 0.1488099 1.1820289 0.098872684 0.5032544
55 -1.7101305 0.61842763 -0.4106438 -1.8616074 -1.740735 0.74814355 1.3435405 -0.36752915 -0.68826693 0.38434327 0.9467125 -0.15715653 0.55631965 0.70335317 1.3981609 -1.1143386 -1.6796803 0.7043555 0.25015554 -0.34859732 -0.022935333 1.6402465 -1.939809 -0.108246215 -1.0626788 1.3268094 0.3842544 -0.34735963 0.7862894 0.029867368 -0.64201075 1.0129234 -1.4897163 0.25597176 -1.4015336 0.4073336 1.3151251 -0.46470383 -0.89956164 -0.2923808 0.5567526 0.10062939 0.56589866 -0.52726626 2.0499332 -1.9116659 -1.8123324 1.5373628 -0.6495836 -2.835774 0.6299273 -0.34504065 1.9620761 -0.926134 1.4261047 -2.1167536 -0.22789823 0.066290446 -0.09457106 1.6888549 -0.42502066 -0.46512318 -0.9549138 0.04477229 0.36002102 2.4001267 -0.51642215 -0.0011283031 1.451501 1.8377706 -0.55943704 -0.49919096 2.0626006 1.9825956 -1.2460089 0.7815263 0.72617 0.38035846 0.14492539 1.6186501 0.11066937 -0.9735691 -1.6795275 0.4438713 1.3560824 -2.3269012 -0.59944946 -0.33213732 -0.026287507 -0.06424377 -0.5243212 -1.7528057 -1.49582 0.6899887 -0.06134333 -0.22848123 1.0676457 -0.444866 -0.6153705 -0.67859346 -0.11380035 0.6733907 0.5031849 0.060350325 0.31447676 -0.6216602 2.1850412 -0.17819184 -0.7092437 0.088692 -0.54986525 0.37544286 -1.4395851 0.28160077 0.14863339 0.40502617 0.3317193 -1.5821264 0.5177664 -1.0854574 -0.48706806 -0.30268767 -0.4671976 0.34320357 -0.07573499 2.1387694 -0.48340288 1.479103
56 -0.88384116 -1.942346 -0.9691396 0.1577983 -1.4189115 -0.33638144 0.19601396 0.7369006 -0.6754397 -0.5447549 0.089880064 -0.8275104 0.083825104 -0.37042063 0.15106897 -1.3226851 0.14230165 0.39138073 1.3916225 0.8656966 -1.0187988 -1.1279807 -1.622161 -1.7585871 3.5271294 -0.3322381 0.7334264 -3.008774 -0.28729033 -0.26568416 -1.7938751 -0.08857165 -0.61393297 -0.11733157 0.6960547 0.25313392 0.6621509 0.06535255 -1.3427609 -1.121335 -0.1402357 0.65929735 0.45701373 1.7903409 -0.93578815 -0.9214555 -0.15365209 0.40038812 -1.2026788 0.41010293 -0.8417865 2.0259194 -0.26830927 0.61857927 1.1404622 -0.4072928 2.334998 0.6210064 -1.0177801 0.058615763 -0.9680172 0.36887375 0.46159977 -1.4338392 1.0154614 0.4099726 -0.5446316 0.16850065 -0.46897608 0.5256856 -1.6127505 0.31167877 0.08286368 1.0641699 1.2042217 -1.5898592 -0.23907275 -0.6484668 0.69860053 -0.8338317 -0.26209924 -0.7632526 -0.6551769 -0.029949969 1.7206342 -0.31500986 -0.027955916 -0.9315462 1.1721869 -1.3161741 -1.07523 -0.4278194 0.21808513 1.357903 1.6148705 -0.29941708 -0.13490808 0.7485923 0.23320515 1.1194234 0.8780974 0.16974886 0.23644856 0.11713629 -0.37166822 0.21369074 0.3481945 0.3167789 0.8057568 1.6233392 -0.35228828 -0.20288604 1.4301465 -1.4149265 -0.90710205 2.1391146 -0.52388895 -0.9491499 0.79582995 1.1286284 -1.0449804 0.8067209 1.1777258 -0.3973263 -1.1673962 -0.1569019 0.5782451 0.34517688
57 -0.14452305 0.9954645 -1.9168518 0.25065905 -0.94617707 -0.07997542 0.35017842 0.49739146 -0.27940708 -1.1286073 -0.15900747 1.5875194 0.2594745 0.37218073 1.1441274 -0.26993337 -0.57505107 -0.27862993 -1.6672369 0.7530019 2.4761832 -1.064197 -0.038903575 0.9278515 -1.1491853 -1.8331811 0.5209949 0.48036623 -0.12874481 1.7300918 0.22210042 -0.39037907 0.9443008 0.96745855 -0.9214503 -0.7859314 0.8637961 0.53047806 1.3047389 1.6916288 -1.2177914 0.3989306 -0.3985281 -0.80756277 1.019507 -0.40040666 -0.62533915 0.31471327 2.521236 -1.4377903 0.11355397 -0.19867748 -0.6675973 -1.0599306 -0.6019762 -0.28859174 1.3363097 0.48032588 -1.2870947 -0.26520577 0.70312387 -0.65173435 -0.2153308 0.95540315 2.066234 -0.39254886 0.9745085 -0.68366 -0.37469634 -1.0479169 -0.3778262 -2.3863358 -0.3200071 0.9808847 -1.2795284 -1.0083051 0.53110415 -0.14040318 1.5868584 -1.6840066 -0.8980057 -0.24714379 0.9027286 -0.68046665 1.9550215 -1.5665812 -1.621638 -0.37215725 -0.8229422 -0.19099192 -0.42020798 -0.7915855 0.31238577 0.47156695 -1.6953954 0.032681134 0.04176409 0.20124681 -0.513918 0.87388253 -0.16006051 -0.018913155 1.2325679 0.8474601 -1.4635571 -1.8851196 0.019961936 0.009259103 -1.0181195 -1.002758 -0.54499954 0.64271456 0.70969844 0.0814002 0.8741636 0.24755459 -0.41413775 -0.13414107 0.22090627 1.2165229 0.7415275 -0.3045215 0.046197694 0.34607723 1.6456146 -1.5163103 0.83591574 2.0396113
58 1.9532338 -1.8771014 -0.63569045 -0.1881567 0.16192405 -2.336869 -0.5489064 -0.334588 -0.5962745 0.8179812 0.6426498 1.2172894 1.6584623 0.33382523 -0.52079535 -0.60581845 -1.3741524 -1.8432864 -0.20790432 -0.834322 1.1756011 0.43378568 -0.20546228 -0.028829379 1.9855217 -0.8037373 -0.7550342 -0.16880418 1.4705948 -1.0762427 0.5519068 0.4008552 -1.1591632 -2.2357073 0.21549709 -0.97642475 -0.54230314 1.1974086 -0.4591099 0.49385104 -0.18874556 -0.3111626 1.7815951 0.51879597 0.42028 -2.1917937 0.1084939 -0.861546 0.02251767 1.2283711 -0.48378998 -0.4488564 -0.40972722 0.075019866 -0.3554567 1.5633606 -1.2589027 0.90887177 0.65705305 -0.8799414 -0.48187184 0.7167037 0.25338653 -1.533528 1.3298011 0.28512412 1.648819 -0.3845833 -1.6956646 0.65061164 -0.5732598 -0.39092132 1.3243514 0.09494991 0.04612077 1.1224338 -0.28178474 -1.3110242 -1.9271482 0.015739217 -0.79715663 0.11052614 1.0105294 -0.94445145 -0.16314979 0.13721879 0.79788136 -0.9418792 0.6921742 -0.70488036 0.072449386 -0.41556218 2.1895688 1.1356648 0.1023346 0.7037536 -1.8104967 -0.7891304 1.0485861 -0.3108248 0.3570025 -0.42456385 0.96028 -0.243165 0.7801439 0.31663606 1.3416404 0.91036993 0.49061406 -0.66027135 1.5252194 -0.9995987 -0.5504422 0.36220932 0.7944972 0.12934265 -0.22931348 -0.43459812 -0.7129682 0.067281164 -0.57656115 0.13338803 0.9764447 0.40389377 -0.54849374 -1.139834 -0.6320874 0.3362289
59 -0.29131427 -0.6246694 0.38116392 -1.9059894 0.41931367 -0.5672987 1.321101 1.8393232 0.023813503 -0.51399106 1.7317263 -0.39804122 -0.2770325 0.4528197 0.30613106 -0.5227301 0.30238125 0.54296076 0.3237513 1.4303086 -0.6429441 1.6935962 -1.010733 0.33874533 0.22725306 -1.1765769 -0.08648582 0.57771087 0.2896219 -0.9796729 0.4878399 -0.7925346 1.3942075 -0.41848373 1.218102 0.76250947 -0.7673515 0.11801254 -2.1053312 0.8591456 -0.41627792 0.47679627 -0.5958636 -0.3666442 -0.8975962 -1.2493492 -0.39145294 1.0543836 -1.2058965 1.6050006 0.21299687 0.75005907 -1.2680376 -0.7418019 0.019124052 0.012769635 1.0364397 1.9621063 -2.1740012 -0.31708065 0.5467138 -0.5237045 -1.0561343 -0.0592828 0.99451685 0.07146762 0.38488486 0.02732744 1.1419982 0.91163015 -0.19510062 0.57517284 -0.36105716 -0.30997407 0.9787022 -0.30175745 0.19860691 2.3990107 -0.103198975 -0.7734446 1.7884439 0.18506578 0.6140771 -0.90577126 -0.74746394 0.18185887 0.93679166 1.5397372 0.8367514 0.4506289 -0.48583263 -0.50237566 -1.1994838 0.5868681 -0.5280571 0.18302606 -1.3057724 -1.4983988 0.40475795 1.4991789 0.43315166 0.5147894 0.9281559 1.1112949 -0.48572785 -0.91758925 0.8736293 0.22852877 0.7258158 -1.0442078 0.6147576 0.59432113 -0.6975573 -0.071584724 0.30427113 -0.5417394 1.1229877 -1.6408159 -0.65651715 0.77698815 1.5222572 -0.031998534 -0.42423168 0.98794365 1.6385627 -0.33423072 -1.0632943 1.6553226
60 -1.0966872 -0.9004827 -0.41994157 1.5053635 0.7536939 1.6406666 -2.3723845 -1.1002192 0.3619169 0.50635445 -0.24393041 -0.3612429 -1.5363126 -0.3888877 -0.30739737 0.32752067 1.2418629 -0.94065994 0.10324214 0.46355695 0.21485648 0.9690432 0.9467862 1.6054771 -0.13351326 1.4597546 -0.5099551 -0.21912146 -0.10598497 -0.8100714 -0.91277397 0.69827557 0.685209 -0.5939027 0.3469908 -0.36016172 1.1050907 -0.29438052 0.6996815 1.6264145 -0.7938698 -1.2584349 -1.0757828 1.6880568 1.5815592 -0.37090635 -1.5022339 0.5038085 0.12850921 -0.7895206 0.54412085 0.6635788 -1.2280234 -1.1844766 0.105603024 0.5129383 -1.2659944 -1.6170034 1.1384821 -0.8519353 -0.011114001 0.8280959 -0.6003392 0.94910717 0.11437627 0.20178495 0.5592517 -0.34522638 -1.2765647 -0.0051237713 -0.17696021 1.4187783 -0.25497434 -0.13890627 0.2094934 -0.14865078 -0.35022372 0.4353468 0.17057393 1.621677 -0.07721714 0.4446436 1.7106141 -0.0007878371 0.34654778 -1.7936302 0.61004627 -1.1382867 -0.9905163 0.38793778 0.18692866 1.1461046 -0.08641868 0.4501073 0.79963535 0.10505744 -0.43265083 -0.29981926 -1.2990383 1.5803441 0.44455662 0.47626272 -0.72152495 0.20651434 1.237502 -2.4032116 1.21174 -0.051676445 0.98513466 -1.6589179 -0.2330833 -0.3547442 -0.60405284 1.1792508 -0.6279201 -0.70584583 -0.18216516 -0.86088765 -0.44880995 -0.18094221 0.50798655 -0.35632217 0.27864417 -1.0661057 -1.0147775 -1.0890447 -1.0218542 -0.6599167
61 0.28891134 0.9602807 -1.4016681 0.8858727 -1.1999693 -1.2123303 -0.022177469 -1.5963677 0.44431615 1.475729 1.704809 0.47156912 -0.38026193 -1.1047695 0.46449253 -1.171842 0.27403787 0.54042846 0.11370676 -1.0692371 -1.4605016 -0.1490919 -0.79121184 0.58101684 -2.8777688 0.10639247 1.6702385 -0.127908 2.2191424 -0.47043297 -1.4315634 0.8776775 0.38340154 0.80631983 1.029184 0.32578808 2.0317118 0.99953014 -0.009196457 -0.26277688 -1.2131563 -2.1631641 1.1121473 0.15980022 0.36004236 -0.67518693 -0.548639 -0.38698807 -0.99954695 0.8031906 -0.11340323 0.86385405 0.12258749 -0.6974044 0.58244914 0.47999927 1.6576151 -0.27100682 0.9658186 0.6883936 -0.9495723 -1.6409336 -0.07100075 0.25614452 1.0899891 0.79673404 -0.18098433 -0.6360428 -1.5483701 -1.291547 0.5890997 -0.15468918 0.078997634 1.7224284 0.3166208 0.83278114 0.8275561 0.052633177 -1.3067085 0.6276298 0.42331228 -1.2142408 0.12833266 0.03457196 -0.8034052 -0.26302055 -0.79261696 -0.8401789 -0.84963775 -1.0689505 0.3971567 -0.43960765 0.9832544 -0.8462581 -0.92653203 -0.79009324 -0.2709097 -0.9204817 -2.3763897 -1.1799986 0.48386437 -0.1708268 -1.8246648 -0.9873843 -2.202295 0.23785987 0.14488152 0.2251488 -0.6656463 -0.122123584 -0.19506265 -0.39865398 1.2475399 0.7762551 -0.36815822 1.6626703 -0.5656667 1.6716493 -0.57972634 -1.603787 2.604346 1.2643574 0.4635966 0.15053564 -0.158511 -1.6387986 1.4042515 -2.3387048
62 -0.77141565 0.81020474 0.74130833 1.337658 0.18203267 2.1867926 -0.7152762 -1.4267623 0.16478609 0.3598302 2.0513544 1.1675816 -0.09217441 0.60930735 0.6393481 0.7760738 -0.35999787 -0.546724 -0.58785605 -0.83912605 -1.186515 -0.803417 -0.8988252 2.5531356 -0.19591443 1.6950232 -0.09181605 0.9028859 -0.4905772 2.0308433 -0.12970893 1.322693 0.023957781 -0.40819576 -1.1015776 0.7849871 -0.022263821 -1.1817814 1.3818312 0.8131857 -0.9615527 -0.15051062 -0.47230127 -1.4002022 1.0071788 -0.476446 -0.41491267 2.460492 0.104741864 -0.70275056 1.4127226 -2.789875 -1.3551981 0.3757329 -2.0645437 0.458343 -0.25321084 -0.2696249 0.392693 -0.20417497 1.0688537 1.1684611 0.65587664 0.0737476 1.2990825 1.5424132 1.3097578 0.015807277 -0.51533365 -0.058368344 0.60748374 -0.61655843 0.36018357 -1.4268943 0.6119324 0.54623115 -0.54826945 0.017491404 -0.4238198 -0.58565456 0.1993202 0.56238055 -1.6446602 0.56023127 2.6870449 0.74001443 0.8541861 -0.69993466 -1.2738779 0.79274726 0.19581886 -0.992225 -0.9693186 0.46933317 -0.49874538 1.4312867 -0.74141395 -2.2449303 0.07301067 0.0039833593 -1.3482739 1.1331925 -0.4703539 -0.5639294 0.681566 -1.0672997 -0.25895053 -1.2726748 -0.40075383 -0.22719885 0.49273315 0.3889685 -0.5032315 -0.7109797 -0.45096326 -1.1865194 1.4892781 0.3984857 1.0452894 0.34992805 0.30406982 -2.2130556 0.11356382 1.4949528 -0.033415753 0.85055554 -0.5241789 1.2165438
63 0.01468577 0.87800455 0.5870544 0.055161733 0.7727456 -0.5223746 -0.50580436 0.41143927 -2.6092837 -0.8856483 -0.2597372 -0.3075501 -0.6997048 1.833687 0.27666697 -0.34516087 -0.84815866 -0.73434204 0.63441783 1.6855438 -0.009483924 0.2342757 -0.1336447 -0.11930701 -1.0377738 1.2168881 1.0311072 1.2789224 -0.44194025 -0.7588558 1.4210594 -0.5583693 0.6570018 1.522419 0.018386174 0.39414442 0.8260641 1.2755432 0.4092495 1.9629915 0.27717334 0.5257365 -1.6302199 -0.7756967 0.062190793 0.2998785 1.0126158 -0.30839136 0.5424869 0.3215219 -0.31075665 1.0690222 0.8798496 -0.7632519 -2.7316377 0.5438496 -1.5544044 -0.6549402 0.5580788 -1.0126673 -1.2519572 1.5902749 -2.0481968 -0.51461667 0.013825183 -1.5483878 -0.37841114 0.51183254 0.24087797 -1.3277109 -0.9297617 -0.3795048 -0.87130004 -1.56129 0.10839591 0.98168135 2.0427415 0.23866627 0.07234695 -0.56509787 0.35523626 2.3875017 0.28139982 -0.8038665 1.6196313 1.0339102 0.49676788 0.33698958 -0.6931553 -0.63157666 -1.1890264 -1.1545701 1.0562564 0.15227349 -0.19185299 0.74970675 0.013360129 0.29413423 0.65386486 -1.960064 -0.13113345 -0.9175771 -0.4275548 -0.548633 -0.7138171 0.023792965 1.553393 0.8613842 -0.25155827 -1.6307387 -0.19413891 0.3233575 -0.5492095 -0.298416 0.23150042 0.68654615 0.17406896 0.6309928 -1.1619457 -0.4190614 0.84332013 -1.2204978 0.32305726 -0.02789157 -1.0331475 1.3120762 -0.14665583 0.55619246
64 -0.55188006 0.83235836 1.8181946 -2.296935 -1.6291577 1.0904 0.08008594 0.115594946 -0.8640728 0.28728634 0.27161115 0.75704867 -0.6434382 1.315736 0.5941078 -0.38360718 1.2348696 -0.4983568 0.644639 -0.12536497 -0.5557606 -0.6739027 2.1308212 -0.24007057 -0.42147002 -0.7667765 2.0288224 -2.2643092 0.50449896 -0.39624572 -0.29755417 0.1974233 -0.15848677 0.6858143 -1.8781319 0.07042627 1.801487 -1.9061711 -0.8219679 -0.52920824 -1.1817024 0.0138895465 -0.646642 0.6833864 1.8646965 -1.1145691 1.0885274 -0.45373976 -0.90407586 -0.038528573 -1.6598649 -2.1431646 -1.3686639 0.058954775 -0.62242407 -0.90467775 -0.65386385 -0.26733214 -0.58812207 -0.7893605 0.18373033 0.6177078 -0.28337166 0.6222737 0.11609367 0.7301508 0.80548793 -0.75665796 -0.93882406 2.3263903 1.3717327 -0.4384364 2.4396234 -1.5588448 -0.21917298 -0.38258138 0.17157713 0.7044823 -0.74421895 1.0739924 -0.23961866 0.73518926 1.0729468 0.70929915 -0.58552074 -0.64778686 -0.8730631 -1.1126511 -1.6101631 1.2659084 0.34922713 0.5318291 -0.009914913 1.0319923 -0.39985612 -0.23012485 0.016357856 0.53957176 0.86967605 0.004663147 -0.058020175 -1.3492484 -0.54445714 -0.71618783 1.7462701 1.3524458 1.0575533 -0.07697036 -1.7107009 0.7211272 0.32964146 -0.09102386 -0.43110532 -0.08717972 0.34206203 1.280242 -0.8353084 -0.7045995 -0.11493414 -0.61344653 1.0084784 0.34656957 -0.9498055 0.99145526 -1.2091352 2.001959 0.40216616 -0.8135229
65 -0.1229659 0.90046924 0.31943086 0.062100705 0.4516253 0.12790646 -1.5538856 -0.096633375 -0.5553143 -0.28059068 -0.7255525 -0.3136621 0.06517821 1.0446368 1.4773188 -1.6283897 -0.16125205 -1.4598181 -0.6073614 -0.5420996 1.6420214 0.4289409 -1.6772541 -1.8074616 0.532678 -1.5337753 1.6309825 -0.3210521 0.21633118 -0.42424417 -0.039965242 -0.35336053 -0.41464773 -0.22721519 0.39695933 1.6748118 -0.78458405 -0.22629957 -0.25565034 -0.42701477 -0.2430098 -0.2527398 -0.21072552 0.14493547 -1.37101 0.44419667 -0.052826174 -1.7957759 0.14140502 -0.5126625 0.64460605 -0.061259255 0.1949621 -0.7120461 0.031190118 -0.76918507 -0.25559166 1.1609664 0.83034354 -0.38839743 -2.4037282 -1.3015318 0.9761382 0.68350863 0.46886238 1.2431406 -0.8692356 -0.9349772 -1.924698 2.4597533 0.6428759 -1.347114 -0.5082284 -0.43559572 -0.48546007 0.18354964 1.0208014 0.12090014 0.8644423 -0.6664738 1.5798988 1.0791352 1.1901398 0.6510177 1.0919536 1.2335073 -1.3029257 0.3834448 1.0868629 0.05284345 2.056271 -0.3801953 0.65047926 0.96582735 -0.4945088 0.030514024 0.24694735 -0.59076196 -0.0393462 0.082787685 -1.2172008 0.8419211 1.1672261 1.9607056 1.0696266 1.3579103 -1.2313324 0.6002858 2.0493863 -0.62093276 -2.3453913 -0.27451766 -0.1135518 1.4026148 0.56262565 0.35885113 -1.208177 -1.6490138 -1.966259 0.41685373 -0.19772811 0.14678872 -1.4343519 1.1065953 -0.38288924 -0.2485005 0.79935235 2.0916762
66 0.62658477 1.1070076 -0.4344402 0.6629128 -0.6853121 0.3621977 0.25758168 0.4392913 0.6346167 -0.4031107 2.231326 1.207954 0.9144486 0.6656193 0.07146856 -0.9000617 0.30611697 -0.5300987 1.1326617 -1.9495758 -1.7698843 1.3280317 2.1290362 -0.5896627 0.865128 -1.6757677 -0.1773581 1.7775304 -0.6337996 -2.050915 -0.382308 2.6646173 1.240649 0.0011262519 1.3403789 -1.0290443 0.3083763 1.4016789 -2.398842 0.84760404 2.3881304 -0.03183896 -2.4318135 -1.7161434 -1.4654199 0.13090679 -0.60519385 -1.6654191 -0.86816525 -0.42244616 -0.12813309 -0.59372234 -0.6697474 1.0307523 0.62176067 -0.2762387 -2.353536 -1.4927127 0.55815697 0.09148552 -0.503851 0.7300898 -1.1527675 -0.83280563 -0.7328865 0.013509169 0.123582646 -1.9263289 -1.2638347 0.046684537 0.6605581 0.29134706 -0.1505557 -0.4598337 0.41222864 0.5242382 1.0262744 1.4094349 1.9142506 -0.36268634 -1.049433 0.16813341 2.1256218 -1.3685483 0.7215855 0.47199237 -0.5266089 -0.057735585 -1.609681 0.12363232 0.019657828 1.2004496 -0.6531571 -1.4305451 0.7634478 1.8886354 -0.95703685 1.5955646 -0.7482343 0.81091726 1.7431847 0.73862875 -1.5224464 1.2500137 0.4716296 -1.1295788 1.4217159 -1.1561898 -0.35602087 -0.21309887 0.48301625 -0.20987451 -0.77843493 -1.2818226 -0.57571703 -0.90815115 0.15998924 -1.1479341 0.7191617 -0.008558928 0.73978555 -2.8944929 -0.59975266 -1.3313909 0.12985016 -0.27194422 -0.82202005 0.064647764
67 -0.39264113 -0.27047756 -1.6913247 -0.7015135 0.080630995 0.22042787 -1.2358502 -0.2848563 1.4490479 -0.03406933 -0.34144044 -0.009296875 -0.050982706 -0.4891475 0.14314377 -1.7489766 -0.3822509 -0.018020216 0.63895905 -0.21952532 -0.46294755 0.2754747 0.15433024 -0.58742255 1.5547591 -0.59044516 -1.4835527 0.21259812 0.4567002 1.6890694 0.61023504 0.42215702 0.2652484 0.029536223 0.05667623 1.3485568 0.20699 -0.96939355 -0.0032539142 -2.3872442 -1.3341165 -1.0414739 -0.98449767 -0.8798777 0.72525096 0.24875748 0.72523373 0.11694446 0.5147877 1.4335161 -1.4033575 -1.3993001 -0.92126936 -0.9365079 -0.40396115 2.7217157 0.06754294 -2.1644537 -1.786683 1.1458634 1.0815861 0.3494745 0.32730812 -1.035209 0.8330076 -0.080203705 -1.6533357 -0.07465596 0.2590803 -0.35750708 1.2365704 -0.70525783 0.60843027 1.5851792 -0.34864637 -0.27439433 1.3551793 -0.5687418 -0.15712997 0.15835741 -0.17449713 0.83202136 -0.82190967 -2.023594 -0.46576023 -1.1249924 -0.12938683 2.9001853 2.4969208 -0.16991065 -0.4015233 1.0147088 0.8652161 1.8790144 0.5357305 -0.76639587 0.25475225 -1.415888 -0.59833103 1.2966418 0.0415698 -0.042511936 -0.30190527 -0.3835523 1.4594843 0.3224261 0.8149517 -1.7062881 0.5983065 0.22350322 0.8503349 0.76274854 0.1189036 -1.0088221 0.58198214 -1.386591 2.112487 1.2853993 0.14137793 0.8968869 -1.031641 0.4708981 2.1136875 -0.04826167 -1.2508062 -1.1456805 0.20767945 1.5795587
68 -0.9017597 0.8787826 0.9536891 -0.31616554 -0.10651364 0.73870456 -1.0830318 0.2287995 -0.70374465 0.8049668 0.7178653 -0.43883717 0.5290992 -0.4900566 -0.2857252 0.31021544 2.1802094 2.6415925 0.77466786 -0.5189571 -0.753488 1.6442378 1.1824542 0.24805662 0.26529843 -0.2978293 0.6353331 -0.77935636 -1.2906996 0.1379714 0.096844636 1.4721308 0.2847158 -0.05764898 -0.30197635 -0.6303543 -0.55896354 -1.3205601 -0.60450673 -0.4167957 -0.127937 0.98996925 -0.5920921 0.22056577 -0.3941756 0.21379866 -1.8510809 -0.51682115 -0.42001697 0.8171324 -0.5284995 -0.9211523 -0.59653485 -0.47382337 -0.9276013 -0.90003043 -1.4693024 -0.92880005 -0.36551642 -1.337211 -1.7795248 1.7446271 -1.579942 1.7420385 -2.2854955 1.0527307 -0.42267278 -0.90123636 0.44248855 -0.2802988 -2.3676693 0.54596615 -0.6685567 -1.7440785 -0.83481526 0.8627784 -1.9629683 -0.47862262 0.16238533 -0.64871144 0.045787908 -0.047535058 -0.19318874 1.1515926 1.0550612 0.49500635 -0.37408555 0.5567147 -1.9958667 -0.43371344 -1.1703552 -0.37912044 -0.39355788 0.91781616 0.4162329 -0.53284544 0.14597592 -1.6741756 -0.23249061 2.4653976 1.112175 0.7121775 -0.59209144 -0.1804081 -1.9940231 -0.41322684 -0.37600207 -0.859075 -0.6025293 -0.2602838 -1.1953862 -0.1240127 2.0174675 -0.36759755 -0.91242546 -0.4115961 -1.2474002 -1.7676294 -0.11507642 1.3071512 0.17779538 -0.14352976 0.98006403 -0.29515395 0.23242964 0.457739 0.0065524788 2.275798
69 -1.5440698 0.69050115 2.3294737 1.3329232 0.3605615 -0.04291917 -1.2166638 -1.174456 0.11277025 1.8161956 -0.13686231 -0.93610674 -0.2862873 -0.21931484 -1.1554699 -0.925498 0.675599 -0.86550176 -0.7426228 0.3546647 0.26651695 0.622544 -0.47374874 1.9523865 -0.6617453 0.93485606 -0.3482707 -1.6622182 0.83231986 -1.3931373 0.29390964 0.17724156 -1.5092331 0.4054235 0.23837288 0.07659764 0.041741665 1.4834881 0.29260728 -0.67328703 0.43753436 0.74937755 0.4972868 1.3812119 -0.21795473 0.996801 -0.32319248 -2.081378 -0.80124134 1.0729871 1.5804275 -0.80540246 1.5954385 0.5309965 -1.0730593 -0.92039007 -0.7313556 0.07884375 -0.2793818 -0.26119563 -1.6563414 -0.8533208 1.858109 0.6347367 -0.9197884 -0.8230768 0.702742 1.7134576 -1.2684822 1.2952092 -1.3384061 0.03811924 0.18704958 1.2780237 0.43157217 0.54623604 0.16459434 0.02951931 0.3151663 -1.3971542 1.2895844 1.5267153 0.3903755 -0.58210915 0.37791017 0.8184742 -0.08017406 -0.7985478 0.17607604 -0.018386928 -0.3574778 -0.25799876 -0.51210535 -0.4710553 -0.9031016 1.7075075 -0.17403477 1.0565596 1.6354313 0.6349834 -0.25123146 0.6034422 -0.6660701 0.7317369 1.4330328 1.7905211 -0.7622298 -0.33162993 0.42750844 1.5603966 0.5200271 -0.18711248 1.1949145 0.74321544 0.5601634 -0.012614727 0.25974104 0.9330876 -0.515439 -1.194813 2.1283164 0.31132948 0.4925627 0.5621223 0.42326343 0.84288704 0.3380035 -0.049528576
70 0.3816547 -0.2975262 -0.1319692 -1.4453897 1.489799 -0.71531296 0.40354204 0.16441031 0.43868232 -0.82106495 0.31319222 0.56227726 -0.22041932 -0.22311218 -0.09739937 0.6257701 0.06648073 -1.31614 0.7543983 -0.08715969 -0.14152965 2.2095191 0.18922481 -1.083968 0.4083945 -0.5081272 0.5182411 -0.3960654 -0.97101146 -0.3933693 0.9849188 0.21687505 -1.3288256 2.093179 -1.0049666 0.43129265 0.45288044 0.936527 -0.37825504 1.1758744 0.3208168 -0.7026286 -0.6017989 1.203239 0.22164643 1.1615653 0.36450106 -1.0591729 0.3660686 0.2219373 -0.2965056 1.461641 -0.64603645 -0.44540688 -0.81967497 0.6040559 -0.7589248 -0.6523849 0.682661 -1.2931441 -0.6135595 -1.1371338 0.49804968 0.35963535 -0.33605948 -0.4071977 0.41507775 0.67389846 -1.1438885 0.35264492 -1.7695158 2.8718982 0.31789935 1.911234 1.8053789 1.1804322 -0.8255124 -1.4373208 0.8288641 -0.35510227 1.1258484 1.3833096 0.044262893 -0.85784876 -0.57227 1.1544478 -0.7032729 -0.8688128 1.493684 -0.7447284 -1.6522756 0.2074905 0.5426648 -0.45365867 0.21335593 0.7023549 -0.267176 2.304022 -0.114586085 -0.012916832 -0.57067186 0.5818833 1.9313508 -1.1351196 0.45595667 0.93970215 -0.15071642 -1.0024638 0.36134076 -0.1626531 0.28253 0.84999883 0.32982263 0.04652735 -0.35646537 1.1849158 -0.39636356 1.0540574 -1.0608764 -0.21216652 0.289273 0.80995953 -1.6124171 0.6707006 -1.5108232 -0.18967707 0.83440137 -1.1401798
