2 128
0 2.31080227564998 1.6987556751071509 0.22972885976588847 -0.5883320908320379 -1.1289485837953437 2.980467702201041 -0.38768368283940846 1.0235538463907237 0.4975504773069556 0.4983201150172876 -0.3937806847125188 2.260174175868019 -0.01984628840014682 0.607398878566622 2.8673795557835025 0.24084014625221192 -3.7806773425036138 -1.176198680256053 0.8475496582815771 0.6774743909807424 1.129548279902 -1.8563825348144118 -2.0287837546369056 2.421757901161477 -0.5734529843604778 -0.8745412419094702 -1.3343656828404182 -3.1190287646679273 1.6231796827050837 2.158238280290303 0.6519342510423632 0.24390635779897762 -1.600569232453779 3.2270747308260885 0.05077644501180267 -1.921848857167328 -0.34067201238431155 1.6952574110043617 1.1871884323689021 0.3281174924199208 -0.06138480807417956 0.19805840325506205 0.10570858194218602 1.2228672234907303 1.9410354186304322 1.028669290694006 0.5961842624844048 0.3698731716647822 0.3206517530206993 0.47262177603275807 0.14538223452208837 3.2132091709777937 0.11577693592543432 1.5882092045626959 -1.57394923419623 0.001212306031796213 -0.8608938730660459 0.03317873473520379 -0.10352651200482683 -1.9560930502191691 0.7923724906955427 0.4205577131383368 0.8342792715846089 1.0297617896553435 0.4599185906478479 0.35236345530088536 0.3030474625249575 -0.5709458817735709 -0.5680428653771428 -0.5885950996835327 0.08297510140075472 -0.43948860468358947 1.1195296549260296 -1.9217369261661403 -1.7866694912207022 -0.7285826826518756 0.7324572385106237 -0.09473371684581632 0.6317195852911002 -0.9302549308944914 -0.45942629992862866 0.7503826487014031 2.5226995510003842 0.35485055648723063 -0.7339894637099025 0.3080389439489107 1.8230462645008114 0.2337120219241367 0.9040048698056627 -0.42260629639912733 -1.6051442473380453 -0.7018694464327967 -0.45053201321667985 -0.3380331152357516 1.4172310354920847 -1.0236101924716472 -0.6869745924225374 0.2663555660363268 -0.45424112780721754 -1.5222975890714134 1.334133549339308 -0.5593674358445309 1.2036517012622212 0.9401457149157718 0.3741991272241796 -2.592465282146109 -0.5618010028137491 -0.11976321660420583 0.30690587033334304 0.23731006408809116 -0.5420327300477026 1.6074819647053034 -0.2912029213728114 -0.0028886190246795456 -1.7665998322341936 0.8534610260574761 -0.9995023548793744 -0.5046729196533263 0.7969745702610115 2.071481663058015 -0.617746164875219 -1.7593028455008861 0.08605751931652023 -0.17683487064112535 -0.7126295762618976 -1.5514486493990898 -0.5163818938727437 -0.3131206556387571
1 4.779945498324082 0.46933291869866595 1.8821601124843312 -0.7569212556428477 -1.8922498124632192 2.298913135337498 2.2466069157476567 0.7610843366833219 0.470292603107853 -0.6309981233581583 2.0370150100642697 0.908557133084951 0.8687451673788684 1.263328116815147 -2.761294040626284 -2.247511314671129 2.4273211448609953 0.1331014473955333 -1.2506549151928203 1.0482124077895432 -1.2994469093197032 -1.0459777218857031 4.220786670668638 0.9632152551598961 1.7454206679703197 -1.122408888399386 0.1900623190764716 0.09910366041711668 0.6514807348474642 -0.423209460317342 -1.3291059042976336 0.8546877657405394 1.0339336978300997 0.6244462180193774 -1.1818374223101171 1.5371483639042205 -1.7889298179552173 1.3717094719185832 0.6303190737459082 -0.5700349969629424 -0.42223325784355986 -0.8425957685901503 1.69141959726689 -0.533856641469995 2.612351631698829 -0.40383252428801863 -0.27425570541371314 -0.5940239461840867 -0.31170034167296273 0.589426500383284 0.47930627469088866 -0.6064057667865691 -1.5293258966159262 2.373299665259033 -0.5051522341892123 0.060863410840506574 1.9982817200742338 0.2083071662686486 -2.347560323879449 0.8229628683160991 0.8362830518113576 -0.6819111897029502 -0.03536919963245801 -1.6407575722313619 0.037131939358439545 -0.4144094430952483 0.011458448791493443 -0.30676471100837177 0.865798537371218 -0.2739881198936816 0.9903985972845936 -0.40900166729769816 0.599668813571546 0.5262691249096527 0.2587806057037504 -0.6660827304959355 0.2007138972664183 -0.7909340370971887 0.2932446843759868 -1.3711752481855095 -0.8571902062456925 -0.2633116456644752 1.0072555522733477 -0.8891943123796985 0.21145550625842222 -2.011647282514941 -0.36505442975957586 0.6125952407229877 -1.1587645869483094 -0.20815274664973554 -0.6411485147073324 0.004294061057451498 1.604336395687194 0.03653828636821797 -0.9785237172081696 1.495323869179957 -1.1033837459812357 0.5053035011240921 -0.5439575466875767 -0.9228298298060916 -0.5767631557259847 -0.2155479382585618 -0.4221194608618374 -0.07370195125198184 -0.14136393851763662 0.42497208759758087 1.5825391148860009 0.8877609666148201 -0.3724512122646102 0.18009110744605036 -0.37712264924101413 -0.6549942133921892 1.101069477873449 -0.7591545810023987 0.35039575767029835 -0.5162448901845853 0.6108736784266118 -0.305536348293569 -0.8355099961431502 0.4736805248136032 1.9131304402885594 -0.8424429821884916 -1.5649707005239202 0.48753874241240763 -0.03708421309472487 -0.5573278801548114 0.1509926940887665 0.8440240729887564
2 2.7143307467864197 -1.2612947892691755 -0.3602967484223776 1.2168305652135922 -0.4194622135017813 2.2374670918353177 -1.2309476998861901 -2.1956922936723817 -1.5780348110491926 -0.763169827946934 0.0638126591867024 1.2723309502208602 1.6436153247690897 1.2816945984693224 -0.7849441577406167 -3.2802370272460126 0.735077403128338 -0.33072323802162645 0.756961919796343 2.2257594048878264 1.9542260873193333 -2.288914648071608 1.0362615746606678 0.6507279025980374 -0.8374082611736636 0.043360993341117426 1.4159900458359487 -2.5168498989235433 -0.6885643739391786 2.4738484837989927 0.00425616927963985 -0.5695617989669908 -1.5643174750478914 1.1407288989694377 -2.9676367647270854 0.19766925623289272 0.44137568055885046 -1.1206737182209034 -0.787562748760604 -0.5934085465920637 -0.6800171726981165 0.47358288484191846 -0.8219788552622246 -0.6551691260358032 0.6698196225149826 1.3588786547489753 0.46103067337541775 -0.756355158127948 0.3100262664141018 0.8100228532787638 1.8369929777507155 0.6884531733957012 -0.4109293427005635 -0.03869027145638856 -0.7814455541525782 -0.23480375551383093 -1.3381059415514631 -0.47122590226061994 -0.35337331877507777 0.23234418979471333 -1.035758310744268 -1.1541001666612631 0.9746412252596064 0.40530399579723214 -0.7808763005963777 -1.0017321219321627 -0.5870263682075825 0.8682557906926034 -0.9614705983104356 0.07652064944895844 0.6324143259875245 2.2270496714376753 -0.6351787174124807 -1.1215584962212628 -0.1613847083046171 -0.4609799999936673 -1.1777553619318353 -1.015047495391722 -1.1880039611554485 1.206675070627111 -0.6069243867012635 -0.34397847204739906 -0.47400852674761823 1.3178936811292425 1.8865132231326511 1.0939690190105336 0.8435673674293555 1.88426225648324 0.19962618571483545 -0.023061097921992804 0.38389428848931956 0.2465546368768287 -1.2616032457321593 0.6078924168553842 -0.41696507453061266 -0.4504949533436686 1.3529102841367735 -0.14727880225159434 -0.38816097006058314 -1.1643158969699636 0.8629861117680926 0.1667607319027039 -1.5418028161188322 0.8573883692809635 -0.6809956202282014 -0.31493560671175397 0.12562138257574265 0.8168401232876101 2.5776305099935803 0.519278799197474 -1.0804371759211162 -0.7793241922055639 -0.9806303560406886 -0.7584170815394004 0.5841745327879438 0.40081345034029314 0.2672436921124661 -0.7841711278691007 0.7980434969349336 -0.6883214363294947 0.25025038126244975 -1.4785591772208062 0.8777430161842491 0.7635250490144565 0.5362766571465541 -0.6336175122092562 1.115209181097574 1.355616638409316